100 64
0 0.006254 0.006905 -0.005985 -0.005122 0.002135 0.004720 0.001470 0.000330 -0.005630 0.003466 -0.006807 0.001952 -0.001174 -0.001496 -0.005181 -0.002941 0.004030 0.004727 0.004639 0.002496 0.002414 -0.005942 -0.006400 0.007765 0.005939 0.004828 -0.000944 0.006274 -0.000773 0.001148 -0.000233 -0.004661 0.002050 -0.002090 -0.005977 0.007428 0.006843 -0.001711 -0.000353 0.000796 -0.005684 -0.006261 0.007117 0.000098 -0.004035 -0.004753 -0.004807 0.002651 0.000315 0.002080 -0.006584 -0.005950 -0.000203 0.001787 0.003984 -0.004953 0.006374 0.001448 0.001750 -0.000951 0.004666 -0.003575 -0.003277 0.003372 
1 -0.002489 0.100560 -0.069508 -0.047762 0.105075 -0.008504 0.186775 0.041815 0.094518 -0.080805 -0.082801 0.028387 -0.015190 0.074052 -0.038401 -0.115912 0.003366 0.137691 0.163928 -0.026902 0.043172 0.074587 -0.031804 0.031477 0.078581 -0.019835 -0.044695 0.002418 -0.019376 0.007170 -0.057906 -0.010697 0.040994 0.061790 -0.008796 0.025754 -0.191147 0.093159 0.059329 -0.043812 -0.086857 0.053098 -0.088393 0.054954 -0.021864 0.034835 -0.061398 -0.028655 -0.034728 -0.109942 -0.046145 -0.083622 0.024499 0.054719 0.072588 0.177624 0.041963 0.005139 -0.121095 -0.067612 -0.024192 0.053541 -0.175699 -0.003777 
2 0.194233 0.228953 0.035313 -0.251923 -0.114169 0.099492 0.129716 0.074432 -0.011582 0.023728 -0.158101 -0.081438 -0.058123 0.089882 0.069070 -0.057407 0.049833 -0.034501 0.292674 0.005810 -0.018481 0.004298 0.035411 -0.149800 0.034511 -0.086091 -0.020602 0.013551 0.061026 -0.018110 -0.076910 -0.164987 0.073803 0.032417 0.030764 0.096413 -0.132877 -0.023955 -0.108316 0.217969 -0.061007 -0.201743 -0.080930 -0.112184 -0.141346 0.135947 -0.089636 0.071277 -0.160615 -0.069209 0.027362 -0.057442 -0.023973 0.303156 -0.050077 0.034620 -0.039720 -0.050251 -0.172037 0.054705 -0.072525 -0.153498 -0.167780 0.070948 
3 -0.010426 -0.116338 0.001993 0.001788 -0.119727 -0.027421 0.194680 0.005676 0.183417 0.009039 -0.330885 0.013975 0.090438 0.196470 -0.016754 -0.249729 -0.012496 0.171719 0.042974 -0.220727 0.079661 -0.141039 -0.029470 -0.059075 0.066466 0.044033 -0.152989 -0.203464 0.200648 -0.040511 0.009293 -0.139002 0.031752 0.218361 0.084260 -0.211971 -0.190363 0.158348 -0.017484 0.097765 -0.182508 0.101439 -0.133991 0.026439 -0.129070 0.074979 -0.031341 0.000460 -0.032521 -0.083431 -0.174810 0.117392 0.084331 0.070564 0.049610 0.053591 -0.208264 -0.092122 -0.100194 0.071194 -0.076809 0.065215 -0.021073 0.092431 
4 -0.249309 0.138807 0.329193 -0.146803 -0.023550 0.284992 0.389709 0.037127 0.141095 -0.247692 0.044815 -0.222193 -0.033454 -0.055665 0.000163 -0.185948 0.269942 0.100226 0.494643 -0.606214 0.165502 0.006207 0.162076 -0.021045 0.184499 0.194553 -0.529940 -0.049333 0.309750 -0.185357 -0.038251 -0.106734 -0.016575 0.436809 -0.163678 -0.080172 -0.096465 0.006298 -0.083283 0.126295 0.283662 -0.301944 -0.016804 0.148308 -0.067217 0.002646 -0.050460 -0.121528 0.095246 0.027195 -0.012034 -0.042628 -0.069786 -0.047439 0.078153 0.128844 0.169807 0.109655 -0.219634 -0.282168 -0.257531 -0.026926 0.294526 0.192178 
5 0.053639 0.207770 -0.003486 -0.178887 -0.141402 0.130468 0.106182 -0.063717 -0.189860 -0.009718 -0.151332 0.008970 0.088048 0.082178 0.009487 -0.074678 0.043639 0.179883 0.073610 -0.019689 -0.005556 -0.152701 0.047312 -0.071171 0.107537 0.057446 -0.172233 -0.123569 -0.011677 0.323391 0.056540 0.029486 0.023595 -0.009390 -0.063644 0.126523 -0.138463 0.099439 0.094027 0.021427 -0.012309 -0.036775 -0.081952 0.173205 -0.063884 -0.085342 -0.070696 -0.187020 0.076894 -0.069158 -0.054337 0.028771 -0.033035 0.116022 0.061409 0.188966 0.068921 -0.062054 -0.135789 0.052889 -0.062903 -0.023476 -0.090298 0.031263 
6 0.189408 0.002044 0.074831 -0.174204 -0.172377 -0.060014 0.163943 -0.041702 0.057774 -0.198325 -0.219693 0.173083 -0.139440 0.155236 -0.152563 0.045128 0.084019 0.069658 0.022664 -0.374082 0.072879 0.005597 0.009777 -0.058657 -0.016421 -0.009196 -0.014931 -0.154403 -0.045036 -0.009758 0.055159 0.128770 0.004786 0.111161 0.030910 0.192956 -0.043670 -0.058649 0.190908 0.154466 -0.068838 -0.063111 -0.043891 0.031328 -0.023727 -0.107659 -0.105317 -0.046813 -0.100118 -0.246290 -0.001367 -0.049710 0.114096 0.054034 0.101058 0.178495 -0.021068 0.146328 -0.053192 0.006716 0.135845 0.105005 -0.074994 0.090590 
7 0.172424 0.158661 -0.080836 -0.007231 -0.070128 0.046026 0.172249 0.144051 0.009331 -0.117573 -0.032751 -0.036068 -0.099643 0.103780 -0.048576 0.048058 0.105003 -0.090028 0.305279 -0.031072 -0.068635 -0.045735 0.039854 -0.067125 0.114925 0.104588 -0.143489 -0.163037 0.120596 0.088548 -0.131903 0.083172 0.172910 -0.040050 -0.149017 -0.021872 -0.215415 0.097103 0.102581 -0.017779 0.098304 -0.104121 -0.150130 0.018902 -0.257519 -0.007565 -0.085252 -0.053143 -0.002957 -0.115383 -0.088417 0.134668 0.025271 0.159850 0.015618 0.090955 -0.026690 0.083314 0.181355 -0.002093 0.103436 0.057429 -0.100031 -0.024887 
8 0.236505 0.261587 -0.040380 -0.070166 -0.058767 0.146687 0.047069 0.052934 -0.063302 -0.059516 -0.047207 0.010912 0.107018 0.013282 -0.019400 -0.084657 0.169821 0.092085 0.171776 -0.116656 0.019263 -0.114715 -0.030061 -0.149068 -0.070801 -0.006372 -0.151896 -0.167708 -0.167383 0.184055 -0.067326 -0.029926 -0.043297 0.044072 -0.094723 -0.154163 0.020885 -0.025572 -0.023721 0.023086 0.054027 -0.040120 -0.042688 0.047476 -0.091373 0.071327 -0.057472 -0.176862 -0.033454 -0.156594 -0.121491 -0.051943 -0.014488 -0.051294 0.067065 0.280036 0.049350 -0.022391 0.043679 0.064770 0.020982 0.098625 -0.173680 0.062301 
9 0.261791 0.083419 -0.071872 0.076208 -0.065534 -0.035537 0.183058 -0.243023 0.194354 -0.241360 -0.161024 0.066596 0.006712 -0.175650 -0.018765 -0.076456 -0.002250 0.141997 -0.012924 -0.246604 0.053518 -0.085688 -0.146774 0.023959 0.010920 0.173080 -0.140436 -0.083256 -0.155912 0.046494 -0.061034 0.123365 0.075348 0.064329 0.001728 -0.107709 -0.105256 -0.142536 -0.001156 -0.096101 -0.029292 -0.026087 0.136436 -0.299207 0.052055 0.015829 -0.160535 0.052670 -0.079969 -0.192101 -0.156669 0.242302 -0.116719 0.289363 0.123285 0.132314 0.110206 0.233469 -0.075411 0.017449 -0.248870 0.080071 0.248871 0.212918 
10 0.175751 0.185227 -0.048609 0.072450 -0.041411 0.084910 0.107678 0.204713 -0.053489 -0.073169 -0.179476 -0.032137 -0.193580 0.143204 0.027442 -0.076163 -0.063061 0.205789 0.192749 -0.149747 -0.022656 0.167659 0.091497 -0.073589 -0.070785 -0.100019 -0.256757 0.139983 -0.134845 0.061532 0.001558 -0.042021 0.015121 0.059555 0.027046 0.019364 -0.153835 0.075396 -0.065532 0.035390 -0.058249 0.060691 0.018832 -0.073560 -0.123326 0.165893 -0.170639 0.164437 -0.189298 0.053849 -0.095848 -0.253176 0.223972 0.117747 0.046316 0.125326 -0.073417 -0.025539 -0.034082 0.091239 -0.019263 0.059782 0.061706 0.138156 
11 -0.111728 -0.121252 -0.004887 -0.000980 0.214994 0.435331 -0.073236 -0.088083 -0.023048 -0.286784 -0.177520 0.172661 0.230136 0.181441 0.136795 -0.020424 0.274118 0.046136 0.056848 0.013516 -0.172768 0.042951 -0.042347 -0.192979 -0.131829 0.197616 -0.227269 0.095267 -0.038049 0.027754 -0.194211 0.263619 0.307730 0.086613 0.072208 -0.174613 -0.047290 -0.071166 -0.036116 0.223874 0.025024 0.208564 0.070032 0.048651 -0.055715 -0.374619 -0.050229 0.377005 0.025906 -0.073557 -0.108300 -0.143166 -0.099505 0.088194 0.145020 0.371123 -0.046751 -0.058302 -0.132896 0.404870 0.173890 -0.219667 -0.110609 0.085096 
12 -0.019191 -0.163044 -0.053405 -0.058212 0.383780 0.160063 0.109210 0.188485 -0.185444 -0.023915 -0.284979 0.060354 -0.284763 -0.059027 -0.373430 0.186352 0.371668 -0.165688 -0.097122 0.026312 0.282168 0.051521 -0.125317 0.088637 0.051169 0.169085 -0.099413 -0.253216 0.117109 0.237151 0.157318 -0.060595 -0.003518 0.469383 0.144162 -0.093419 -0.192815 0.034683 -0.025420 -0.022119 0.342853 0.128975 -0.160987 -0.231999 -0.194187 -0.262698 -0.010896 0.357420 -0.349901 -0.483105 -0.159638 0.044914 0.021740 0.050506 -0.221139 0.037987 0.154472 -0.099093 -0.160985 0.130504 0.010721 0.302535 0.091003 0.148727 
13 0.187395 0.136229 0.099683 -0.188116 -0.067352 -0.051621 0.061824 -0.025038 -0.016885 -0.178134 -0.144094 0.142893 0.019061 0.145162 -0.018194 -0.200020 -0.001073 0.007784 0.068432 -0.280406 -0.190643 -0.078027 0.126128 -0.031720 -0.157437 0.053759 0.017857 -0.076877 -0.013764 0.119572 0.086861 0.063601 0.123855 -0.001537 -0.188117 0.096459 -0.123518 0.128810 -0.054873 0.080414 0.083839 -0.029176 0.052284 0.074747 -0.223217 -0.074499 -0.236462 -0.088243 0.015585 -0.266794 -0.017216 -0.170790 0.086512 -0.072412 0.241709 0.188466 0.132333 0.009425 0.068731 0.047874 0.002536 0.050442 -0.050552 0.066874 
14 -0.068715 0.144560 -0.052133 -0.441689 -0.294754 -0.317073 -0.051903 0.313195 0.201644 -0.145384 -0.210206 0.187417 -0.104187 -0.234552 -0.049648 -0.150716 0.293142 0.251500 0.019822 -0.297459 0.065182 0.175310 -0.177729 0.197377 0.112484 -0.133897 -0.162676 -0.394660 0.254278 -0.092774 0.082224 0.031336 -0.014783 -0.055500 0.190801 -0.197553 -0.438988 -0.312952 0.026443 -0.104109 0.225442 0.279995 0.113455 -0.103812 0.174573 -0.274417 0.288340 0.002557 -0.247733 -0.278762 -0.181567 0.248888 0.611230 0.006680 -0.285920 0.452370 0.120918 0.076421 -0.098181 0.283706 -0.181235 -0.314027 0.060811 -0.415430 
15 0.023690 0.046710 -0.247222 -0.174386 -0.080633 0.057720 0.059578 0.049940 -0.106451 -0.292946 0.077514 -0.105125 -0.288826 -0.029654 -0.237684 -0.185979 -0.316942 -0.012739 -0.049081 -0.198992 -0.121404 0.078323 -0.216406 0.086557 -0.007098 0.192281 0.012612 0.195362 -0.075845 0.013758 0.008778 0.002058 0.064398 -0.023393 0.031858 -0.080820 -0.171742 -0.170209 0.051180 0.227147 -0.128237 -0.129447 -0.021078 -0.121018 -0.086676 0.024087 0.091117 0.019863 -0.293698 -0.117511 -0.128848 0.091931 0.216801 0.232251 -0.049157 0.289799 -0.074104 0.070653 -0.099495 0.084760 -0.193594 0.003446 0.025415 0.194604 
16 0.173023 0.000306 -0.023798 -0.119877 -0.087099 0.101405 0.183538 0.200834 0.059244 -0.055070 -0.114435 -0.014934 0.062812 0.138005 -0.057179 -0.222005 0.068886 -0.058613 0.126341 -0.100939 0.259200 0.000454 -0.035010 -0.117465 0.046228 0.217004 0.054990 -0.144168 -0.147096 0.103388 0.033612 -0.056661 0.210065 -0.131798 -0.236805 -0.072071 0.014661 -0.103302 0.121018 -0.080302 0.088907 -0.146986 -0.227456 0.156489 -0.109636 0.069376 -0.140294 -0.130231 -0.029272 -0.125937 -0.046585 -0.127657 0.140847 0.068939 -0.021627 0.220340 -0.051510 -0.059382 -0.207893 -0.014381 0.012377 -0.141964 -0.166346 0.004264 
17 -0.075132 0.037267 0.030423 -0.271960 0.113346 0.124235 0.025212 0.277340 0.030692 -0.121318 0.034199 0.109084 -0.181560 0.070849 -0.089469 -0.169446 -0.166458 0.295937 -0.115657 0.099644 -0.031060 -0.164632 0.081832 0.149478 -0.272115 0.053859 -0.317348 0.155200 -0.186345 -0.258295 -0.036638 0.258671 -0.055069 0.338042 0.065060 -0.185034 -0.208346 -0.012106 0.027355 0.026337 -0.331656 -0.260695 0.215226 -0.342112 -0.245240 -0.165096 0.215680 -0.075512 0.085463 -0.219360 -0.218940 -0.111023 0.141443 0.134445 -0.068745 0.202970 0.119649 0.359035 -0.169602 0.084032 -0.060019 0.152285 0.016859 0.118195 
18 -0.124232 0.200671 -0.103282 0.202124 0.010103 0.026354 0.147318 0.295760 -0.246884 -0.339570 -0.442112 0.095064 -0.145978 0.109760 0.042438 0.006368 0.050567 -0.104660 0.139923 -0.078725 0.182413 0.146513 -0.365226 0.079300 -0.067164 0.021738 0.046230 -0.002750 0.175318 0.186957 -0.001873 0.450974 0.243994 0.069834 0.179887 -0.439545 -0.090037 0.096215 0.007363 0.041909 -0.107728 -0.119346 -0.124626 -0.522213 0.200717 -0.195180 -0.114592 -0.107017 -0.080441 0.061281 -0.281519 -0.067679 -0.147090 0.053373 0.293617 0.155173 0.383591 -0.118748 -0.342788 0.012607 -0.116097 0.249380 0.107373 -0.287854 
19 0.193399 0.065319 -0.228080 0.118936 -0.211693 -0.059120 -0.035456 0.088109 0.028438 -0.265846 -0.050277 0.027398 0.031166 -0.065540 -0.066137 -0.053885 -0.038355 0.433477 0.222179 -0.027798 0.006952 0.011399 0.104463 0.100153 0.182922 0.230085 -0.040273 0.118411 0.223945 0.223678 -0.235360 0.324271 0.094296 0.350868 0.557752 -0.063980 0.138690 -0.130054 -0.119325 -0.017823 0.037831 -0.165263 -0.185273 0.210046 -0.352229 0.079449 -0.120866 0.193114 0.159895 -0.169740 -0.078810 -0.165101 -0.104760 -0.310098 0.300804 -0.013758 -0.017049 -0.290997 -0.157940 0.407551 0.023985 -0.139962 -0.540443 -0.009436 
20 0.115282 0.013433 -0.065621 0.193097 -0.181727 -0.181451 0.224243 0.347796 0.017133 -0.303690 -0.197217 -0.271828 0.129188 -0.143683 0.050148 -0.178442 0.106069 0.168080 0.184096 -0.023818 -0.061943 0.075520 -0.288236 0.032351 -0.020517 0.145444 -0.019678 -0.387108 -0.118675 0.235339 -0.050604 -0.009523 -0.191293 0.096600 -0.253318 -0.007619 -0.179277 0.000439 -0.082256 -0.012537 -0.418976 0.114836 0.047339 0.153790 -0.113955 0.022501 -0.042403 0.284239 0.204474 -0.196539 -0.098353 -0.254659 0.006238 0.264658 0.069313 0.093546 0.091580 0.107849 0.317287 0.076675 -0.106137 -0.011774 0.039066 0.034855 
21 0.047975 -0.047424 -0.229285 -0.117654 -0.241141 -0.006500 -0.080225 -0.042742 0.073361 -0.389883 -0.226183 0.056330 0.040855 0.079435 -0.286974 -0.047345 -0.087751 0.000795 0.371135 -0.208477 0.321164 0.121522 0.132181 0.121921 0.064287 0.041810 0.175063 0.067730 -0.027704 0.132452 -0.206799 0.261076 0.051724 0.105437 0.236851 0.096668 0.138708 0.055090 0.145045 -0.200321 0.058715 0.144999 0.034687 -0.085841 -0.173182 0.007574 0.270936 -0.077238 0.078102 -0.068426 -0.460921 -0.096433 -0.160460 0.083301 -0.046910 0.033624 0.074309 -0.177476 0.199008 -0.025053 -0.571161 -0.118117 -0.400885 0.218300 
22 0.110008 -0.041466 -0.028192 -0.183553 0.056909 0.221796 0.050832 0.308854 0.112065 -0.165038 -0.241891 -0.042607 0.130185 0.183151 -0.263573 0.229760 0.158427 0.303764 -0.099642 -0.000780 -0.011784 0.022224 -0.183275 -0.101192 -0.172290 0.216537 0.031687 0.021840 0.045958 -0.147426 0.341520 -0.072045 -0.110762 0.501255 0.338783 0.028600 -0.021564 0.230482 0.425156 -0.053297 0.024849 0.249051 0.147054 -0.139742 0.227178 0.459094 0.010353 -0.249315 0.024868 -0.322118 -0.047148 0.066609 0.008070 0.386901 0.150818 0.192626 0.191125 0.233100 0.065081 0.317799 -0.181912 -0.034271 -0.026812 0.144594 
23 0.171004 0.102843 -0.073357 -0.039726 -0.113492 0.005144 0.130319 -0.061579 0.045162 -0.124235 -0.060744 0.059134 0.068133 0.198899 -0.164478 0.019305 0.219286 0.004298 0.134902 -0.085052 0.016907 -0.062806 -0.080093 -0.094100 -0.030541 0.105444 -0.085935 -0.274716 -0.129005 0.149929 -0.103099 -0.046182 -0.039800 0.107485 -0.076107 0.088127 -0.023997 -0.041985 0.041174 0.023959 -0.016473 -0.124033 -0.158504 0.001870 -0.020832 0.090777 0.108147 -0.165764 -0.060637 -0.073345 -0.148692 0.006182 0.023993 0.013237 0.130370 0.200259 -0.041737 0.042749 -0.087264 0.060865 -0.051402 0.101142 -0.202310 0.042747 
24 0.175578 0.189734 0.038548 0.035122 -0.002356 -0.036290 0.277403 0.035757 0.127056 -0.174410 0.144315 -0.120899 -0.009281 0.009039 -0.115494 -0.215911 -0.078658 0.018553 0.247712 0.018166 -0.022069 -0.076991 0.093990 0.217939 0.137108 0.263310 -0.094804 0.022190 -0.173298 0.348187 -0.019451 -0.115163 0.018383 0.052708 -0.081369 0.028233 -0.170817 -0.205411 0.093079 0.066771 0.144315 -0.206441 0.126021 -0.007376 0.079512 0.034231 -0.046109 -0.131413 -0.167203 -0.108949 -0.046155 0.005326 -0.003401 0.249439 0.074382 0.230338 0.075393 -0.139030 -0.040297 -0.055415 -0.051303 0.137921 0.130765 0.172430 
25 -0.019192 0.550310 0.009710 -0.456360 -0.054357 -0.374912 0.380384 -0.287961 -0.238690 0.021950 0.324670 -0.330335 -0.015311 0.292455 0.067434 -0.161861 0.139053 -0.035996 -0.141640 0.208485 0.299147 -0.264460 -0.177961 -0.535342 0.065075 -0.174414 -0.271010 -0.151743 0.194670 0.026566 0.026923 0.177540 0.388872 0.196804 -0.335667 0.072339 0.146269 0.119420 0.038605 0.295823 0.224883 0.061892 -0.141344 0.021998 -0.199161 -0.189372 0.057578 0.215350 0.110966 -0.023449 -0.158200 -0.112554 0.042364 0.553795 0.223647 0.045835 -0.063451 0.026557 -0.061125 0.084944 -0.188346 -0.168746 -0.154773 -0.056198 
26 -0.061388 -0.010455 -0.017501 -0.053976 -0.123974 0.258209 0.214121 -0.284256 0.043734 -0.322761 -0.065326 0.062951 0.249822 0.029528 -0.006289 0.034789 -0.135181 0.093260 0.370401 -0.074806 -0.174189 0.158843 -0.177260 -0.297005 0.210339 -0.007332 0.096635 0.146066 0.194201 -0.066886 -0.057671 -0.219302 0.133427 0.166485 0.055460 0.236271 0.203366 -0.342342 -0.004030 0.096227 -0.000164 0.038603 -0.263925 0.073213 -0.237169 -0.220983 -0.071493 -0.122083 -0.107816 -0.024508 -0.347661 -0.177256 0.161791 -0.212956 0.037913 0.115296 0.162336 0.317898 0.104283 0.535102 0.157049 0.397301 -0.037656 0.150479 
27 0.246028 0.095782 0.036042 -0.051791 -0.100999 0.318697 0.552678 0.024387 -0.223925 0.118100 -0.244072 0.026615 0.105035 -0.026097 0.122993 -0.069857 0.107088 -0.176156 0.171246 -0.067512 -0.168293 -0.069785 0.420558 0.141739 0.166985 -0.020960 -0.205006 -0.112183 -0.082101 0.006297 -0.153758 -0.007017 -0.014372 -0.020492 -0.035675 -0.122794 -0.492249 0.312703 0.163062 0.152639 -0.160924 0.119361 -0.405594 0.097336 0.055767 -0.144801 -0.051141 -0.082023 -0.007915 0.015197 0.273347 0.031142 0.336956 0.027252 0.200248 0.014716 -0.058102 -0.078235 -0.031080 0.157713 -0.317154 0.014257 -0.307902 -0.038472 
28 0.265355 0.172934 0.020620 -0.086624 -0.140782 0.223393 0.149661 0.172021 -0.050581 -0.039530 -0.250919 -0.304973 0.019636 0.083568 -0.062697 -0.347059 0.031602 0.109132 0.129722 -0.047480 0.086235 -0.228518 0.109103 -0.144058 -0.008789 -0.121267 0.161449 -0.173131 -0.115968 -0.032971 -0.168535 -0.174759 0.015360 0.000726 -0.069827 0.016089 -0.147690 0.064650 0.086803 -0.002919 0.108049 -0.205415 -0.147129 0.153665 -0.032510 0.037098 0.105003 -0.296183 0.131581 -0.179569 -0.142282 0.094221 0.012948 0.025349 0.032242 0.209486 -0.038480 0.052640 -0.137308 -0.049990 -0.038590 -0.111853 -0.051536 0.105680 
29 -0.044671 0.064883 0.207425 -0.160513 0.117279 0.174663 -0.153451 -0.220434 -0.045258 -0.508826 -0.458502 -0.314516 0.115308 0.262149 -0.037554 -0.547327 0.165255 0.005716 0.100929 0.000903 -0.087795 0.028391 0.264536 -0.321397 0.006078 0.118926 -0.011173 -0.167695 -0.060418 0.078730 -0.325943 -0.069465 0.516000 -0.170680 0.213367 0.158734 -0.259883 0.098905 -0.065519 -0.096838 0.051273 0.098235 0.219533 -0.086523 -0.063308 0.031547 0.553997 0.141648 0.144054 0.108440 -0.177444 -0.142909 0.110201 -0.208111 -0.159615 0.566382 0.028541 -0.160098 0.471012 -0.051908 -0.188530 -0.175536 -0.188099 0.482411 
30 0.190332 -0.139939 0.238378 -0.282608 -0.143164 -0.111676 -0.031593 0.319642 0.084566 -0.278803 0.118770 0.659902 0.099160 -0.280013 -0.663961 -0.250441 0.126275 0.203065 0.257998 -0.096069 0.153188 -0.734589 -0.042728 0.320863 -0.223817 -0.069256 -0.087928 -0.182958 0.374855 -0.154338 0.245667 -0.363440 -0.006451 -0.359139 -0.346286 -0.224804 -0.558134 -0.197510 0.219059 0.062343 -0.248992 0.384641 -0.867176 0.071355 -0.030130 0.123553 -0.129126 0.305707 0.009535 0.287390 0.296830 0.392573 0.290731 -0.000230 -0.112743 0.696954 -0.376884 -0.075210 0.189327 0.208343 -0.508013 -0.047356 -0.424555 -0.089891 
31 0.191887 0.160299 -0.236326 -0.318764 0.109468 0.262863 -0.091665 -0.120865 0.153259 0.141727 -0.083682 0.103804 0.112520 0.227666 -0.033633 -0.113652 0.002548 0.131307 0.322031 -0.104815 0.047323 0.073812 -0.298000 -0.172970 -0.222927 0.045191 0.049970 -0.152713 0.125324 0.214225 -0.023846 0.051297 0.143730 -0.066535 -0.156968 -0.164556 -0.173508 0.055730 0.133701 0.060912 -0.022015 -0.117337 0.172935 -0.172194 -0.180795 -0.021983 -0.229319 0.010866 0.160357 -0.332053 0.099896 -0.066816 0.192647 -0.156619 0.060831 -0.166421 0.319707 -0.098173 -0.220995 0.019295 -0.360897 0.407316 -0.092103 0.270301 
32 -0.029464 0.145510 0.192117 -0.088776 -0.020090 0.310497 0.221531 0.242749 -0.001736 0.043035 -0.159500 -0.111552 -0.012554 -0.040832 0.064958 -0.061529 -0.173816 -0.002270 0.219534 -0.101579 -0.061353 -0.006646 -0.150368 -0.003997 -0.157146 -0.094792 -0.180778 0.190153 -0.247407 0.077494 0.154180 0.266881 0.002822 0.167908 0.174948 -0.034754 -0.125711 0.069659 -0.295160 0.002404 -0.210105 -0.140865 -0.009955 0.045228 -0.027301 0.111255 -0.196341 0.169025 0.014135 -0.230949 -0.015017 -0.092638 0.103610 0.243789 -0.005998 0.299928 -0.105623 -0.051547 0.150820 0.001709 0.016789 0.057516 -0.064809 0.081246 
33 0.002133 0.410748 0.112427 -0.287158 -0.106522 -0.054198 0.034012 0.272356 -0.255061 -0.275801 -0.113435 0.092295 0.350589 -0.120955 -0.031358 -0.103683 0.131157 0.124596 -0.124406 -0.065889 -0.017345 0.174659 0.129612 -0.151874 0.087600 0.107987 0.004496 -0.115891 0.146891 -0.200273 0.091971 -0.100017 0.130121 -0.185066 -0.076218 -0.164498 -0.118384 -0.292583 0.100333 -0.280721 -0.106737 -0.059100 -0.359009 -0.016931 -0.192413 -0.235962 0.217816 -0.075668 0.123149 -0.008272 0.048727 0.079061 0.457062 0.566475 0.178636 0.005096 -0.116651 -0.142758 -0.407626 -0.426354 0.124040 0.147984 -0.154366 0.368580 
34 0.170545 0.012532 -0.342660 -0.212555 0.019821 0.168060 0.137821 -0.174398 0.085559 -0.154238 -0.066196 -0.028966 0.117674 -0.132739 0.164719 -0.076985 0.469542 0.136268 0.075866 0.226207 0.161215 0.004177 -0.260936 0.404160 -0.099974 -0.345076 -0.248721 -0.008206 0.024298 -0.197974 -0.085199 0.015822 0.251126 0.238926 -0.207068 0.185247 -0.443343 -0.190079 0.368935 -0.046728 -0.287123 -0.037384 -0.281965 0.157759 -0.087568 -0.017046 -0.197868 -0.299541 -0.146840 -0.313526 -0.093455 -0.276757 -0.022902 -0.115596 0.042447 0.246645 -0.084552 -0.324580 0.273500 -0.002065 -0.225555 -0.368809 0.182036 0.155628 
35 0.183129 -0.323355 0.031566 -0.333543 -0.500499 -0.035524 -0.148318 -0.132469 0.709738 -0.113946 -0.340115 -0.093000 0.179373 0.139500 -0.193490 0.285879 0.072292 0.384882 0.052921 -0.564672 -0.272978 0.006888 0.354437 0.091372 0.194013 -0.507899 0.123855 0.015442 -0.059035 -0.056568 -0.127365 0.052704 0.152340 0.057677 0.149933 -0.206829 0.185615 -0.190937 0.408326 0.373434 0.159573 0.209033 -0.214979 0.166277 -0.071374 -0.299650 0.078241 0.254044 0.075171 -0.063718 -0.073402 -0.220409 0.198623 0.269692 -0.235958 0.539767 0.125640 0.132683 0.198777 -0.160813 0.048438 0.414576 0.105838 -0.118880 
36 0.363010 0.172594 -0.177869 0.011133 0.123891 -0.099029 -0.105687 0.184132 0.223463 -0.251449 -0.062597 0.056556 -0.141659 0.173592 0.122854 0.200132 0.231016 -0.073708 0.167690 -0.367486 0.139312 -0.502248 -0.082540 -0.191532 0.120980 0.375193 0.277988 0.226282 0.099170 -0.196826 0.374521 0.290964 -0.180116 0.061308 0.046627 0.028310 -0.317754 0.074848 -0.148058 0.090679 -0.011937 0.146845 -0.031178 -0.121513 0.105215 0.261729 0.005323 -0.084411 -0.080225 -0.068737 -0.228297 -0.017905 0.089768 0.212759 0.149347 0.429481 0.005683 -0.118672 -0.092510 0.086360 0.071941 0.076122 0.260466 0.067567 
37 0.163716 0.085930 -0.016060 -0.098816 -0.104192 0.014677 0.062495 0.110957 0.201211 -0.027291 0.003826 0.160758 -0.311894 -0.034228 0.067886 0.265930 0.134862 0.150291 0.090271 -0.200725 0.108403 -0.079379 -0.245120 -0.013891 0.072878 -0.088853 -0.037786 0.015649 0.256560 0.250501 0.006029 -0.014811 0.043338 -0.074586 0.255198 0.121088 -0.199464 0.037586 -0.193721 0.033424 0.024549 -0.059619 -0.105344 -0.023166 -0.051287 -0.030195 0.046008 -0.249521 0.115100 -0.088635 -0.226983 0.052407 -0.235597 0.128421 0.117715 0.150950 0.096050 -0.063523 0.080010 0.064310 0.065898 0.092218 -0.207960 0.312292 
38 -0.112236 -0.394028 -0.329341 -0.241587 -0.353589 0.078192 0.050046 0.017097 0.332917 -0.252564 0.009701 -0.291992 0.342086 -0.029472 0.263634 0.387695 -0.105127 0.314966 0.057311 -0.385707 0.068875 -0.300377 0.125632 -0.196884 0.264530 -0.290713 0.104600 0.023157 -0.080610 -0.040987 -0.230799 -0.040758 -0.004676 -0.073204 0.336856 0.027466 -0.100262 -0.119213 0.202677 0.222609 0.130068 0.073116 -0.206435 -0.174383 -0.231093 -0.276324 -0.075272 0.384818 0.159004 -0.271740 0.038244 -0.100388 0.117825 -0.044716 0.035099 0.441146 0.015210 0.460581 -0.031615 -0.100989 0.159375 0.095129 -0.018789 -0.029628 
39 -0.129271 0.277515 0.104646 0.212607 0.145886 0.062140 -0.173982 -0.108171 0.021073 -0.316636 -0.027267 -0.051519 -0.025317 0.025401 -0.351416 0.146063 -0.052833 0.083087 0.295516 -0.177865 0.107893 0.129281 0.061557 0.271348 0.065811 0.025665 -0.200105 -0.038060 -0.399329 0.025050 -0.093683 -0.262040 0.545360 0.134136 0.188370 0.042788 -0.371535 -0.171129 0.093324 -0.015794 0.136500 -0.132341 0.212573 -0.313527 0.033130 -0.266893 -0.360273 0.017572 0.048562 -0.414765 -0.167028 0.118490 -0.197376 0.251078 0.299759 -0.069900 -0.325953 0.388456 0.188495 0.111481 -0.034438 0.145121 -0.146936 -0.215275 
40 0.081974 -0.003567 -0.204596 -0.070950 0.043424 -0.135492 0.118972 0.168825 -0.181214 -0.024321 -0.126772 0.112710 -0.241259 0.146706 -0.068233 0.244866 -0.110837 0.100312 0.124588 0.100337 0.008815 -0.134161 -0.120823 0.080747 -0.302605 0.093349 -0.159955 0.180718 0.080593 0.344426 -0.032169 -0.128881 -0.029409 0.313070 0.133404 0.142569 -0.225739 -0.074791 -0.220820 0.046384 0.257123 0.102613 -0.364456 0.016523 0.005482 -0.164491 -0.142898 0.077779 -0.160138 -0.112220 -0.254437 0.286497 0.080759 0.057629 0.081886 0.142058 0.010341 0.078929 0.038386 -0.148689 -0.178810 0.108790 -0.110304 0.206315 
41 0.634594 -0.452841 0.336015 -0.500194 0.605417 -0.305352 0.228135 0.166216 0.474626 0.123292 0.073196 -0.073550 0.128107 -0.388050 -0.076964 -0.100092 -0.050674 0.371333 0.064919 -0.388769 -0.195258 0.264254 0.120638 -0.140723 0.315687 -0.467160 0.190350 -0.393984 -0.150101 0.142831 -0.261501 -0.110894 0.247743 0.135580 -0.531807 -0.253573 -0.469484 0.086777 0.450291 -0.095253 -0.263778 -0.072625 -0.360964 -0.274187 0.174634 -0.257134 -0.184935 -0.109428 0.256891 0.248255 -0.525023 0.528313 0.475060 -0.034210 0.072402 0.350162 -0.088265 -0.610587 0.197287 0.346308 -0.160693 -0.493364 0.133448 -0.134487 
42 0.287539 0.102975 0.044081 -0.035164 -0.201203 0.177018 0.028614 -0.030115 0.115515 -0.088696 -0.031852 0.146069 -0.078688 0.248193 -0.114724 -0.208180 0.133281 0.204563 0.313805 0.053321 0.143659 0.051381 0.041849 -0.159534 -0.038022 0.044535 -0.041987 -0.124886 -0.205779 0.016718 0.040887 0.020023 -0.100429 0.021114 -0.082853 -0.043389 -0.048791 -0.080165 -0.022419 -0.083986 0.020639 0.055158 -0.156301 -0.026274 -0.147132 -0.126023 0.045849 -0.160192 -0.069167 -0.232306 -0.069935 -0.041286 -0.259590 0.016988 0.097829 0.192965 0.075865 0.071280 -0.193080 -0.023760 0.062819 -0.138026 -0.083150 0.032747 
43 0.153832 0.220602 -0.113582 -0.397778 -0.268178 0.160259 0.168171 -0.152010 -0.206898 0.115903 -0.439684 -0.230155 0.019953 -0.221158 0.126988 -0.079218 -0.312912 -0.012241 0.170493 0.069343 -0.064025 -0.039663 0.052345 -0.482645 -0.006809 0.055419 -0.035934 -0.236782 -0.091681 0.047080 0.258598 -0.047935 0.128155 0.200728 -0.343950 -0.009350 -0.222358 0.042013 0.236638 0.124807 0.209642 -0.249581 0.037626 -0.188784 -0.376268 0.125533 -0.046676 0.071783 -0.185604 0.205539 -0.124080 0.039863 -0.059341 0.145956 -0.154371 0.404935 -0.124376 -0.038342 -0.155590 0.131129 0.143855 -0.373284 -0.095002 -0.187568 
44 -0.166018 -0.287494 -0.318545 -0.045280 0.019530 -0.084795 0.235591 -0.067635 0.271389 0.090898 -0.253755 -0.408594 0.089685 -0.257838 0.277276 0.026030 0.214191 0.184402 0.215220 0.095456 -0.117857 -0.129686 -0.032626 -0.145678 0.092424 0.271198 -0.257969 0.195436 0.188203 0.216528 -0.240951 0.087997 -0.095652 0.108416 0.193825 0.220966 0.104439 -0.106750 0.161100 0.072211 0.239417 0.210149 -0.387900 -0.348415 -0.328027 -0.083455 -0.115949 0.042539 0.252280 -0.286048 -0.197533 -0.162245 -0.171898 -0.297344 0.162465 0.099964 -0.183834 0.491901 -0.200151 0.246098 0.098924 0.461350 -0.129666 0.216237 
45 -0.060984 0.038262 -0.042306 0.127368 0.127938 0.021161 0.066722 0.157438 0.103331 -0.255270 -0.139765 0.034602 -0.357338 0.063114 0.170440 -0.046132 -0.294483 0.465179 -0.087501 -0.166944 -0.072165 -0.192782 0.023196 0.055114 -0.132496 0.092163 -0.087674 -0.281750 -0.344334 -0.343027 -0.512105 0.013880 0.296144 0.373408 -0.172493 -0.167817 -0.233348 0.127614 -0.075834 0.018906 0.148492 0.135865 0.166568 -0.183134 -0.278323 0.036343 0.281240 -0.231907 -0.259984 -0.461012 0.462467 0.055850 -0.338822 0.115149 -0.266942 0.061330 0.308508 -0.423816 -0.110563 0.455586 -0.326315 0.625854 0.035042 0.272229 
46 0.004935 0.183957 0.054026 0.180465 -0.051284 0.349580 -0.053461 -0.389804 0.220617 -0.725101 0.488691 -0.138036 -0.238567 0.071868 0.289812 -0.461113 0.220386 0.248097 0.291558 0.017619 -0.188909 -0.231594 -0.196720 0.430983 0.126916 -0.045659 0.068200 -0.450474 -0.116499 0.310610 0.038183 -0.108213 -0.158941 0.363344 0.091312 -0.010261 0.057615 0.210997 0.060951 -0.302535 -0.032601 0.368974 0.057899 -0.521364 0.134990 -0.201984 -0.433695 0.086747 -0.147626 0.310751 -0.026287 -0.431781 0.572487 0.267475 -0.406293 0.061539 -0.253605 -0.182975 -0.093826 -0.187801 0.401392 0.006513 -0.371689 0.375595 
47 -0.018554 0.074835 0.034731 -0.103242 -0.035759 0.018326 0.054247 0.215163 0.590952 -0.120423 -0.210300 0.268417 -0.183341 -0.074611 -0.639150 0.229241 0.166526 0.141122 -0.293248 -0.045015 -0.146230 0.199796 -0.008541 0.080446 0.247008 -0.307402 -0.032198 -0.375207 -0.043814 0.259763 0.244865 -0.137743 0.180001 0.206513 0.025659 0.089934 -0.395153 -0.170521 0.013228 -0.091640 -0.189841 0.126214 -0.108697 0.011020 -0.181899 -0.254555 0.411042 0.347574 -0.337803 0.095719 -0.464548 -0.005255 0.328934 0.013810 -0.064118 0.032871 0.189106 -0.330338 0.065150 0.289874 -0.279129 0.216553 0.083497 -0.018685 
48 -0.072140 0.500780 0.163854 0.130590 0.012474 0.121813 -0.092083 0.528854 -0.282440 0.326826 0.093435 -0.052012 0.485945 0.435327 0.032404 -0.291452 0.386504 0.173320 -0.041049 -0.449394 -0.224584 -0.058112 -0.161097 -0.057608 -0.159019 0.135822 -0.013492 0.246811 0.132453 0.409954 -0.365120 0.277880 0.073268 -0.104206 0.054431 0.594699 -0.146735 -0.042103 0.147050 -0.109412 -0.198361 0.310254 0.072698 -0.147197 -0.695238 0.067412 -0.154483 -0.137961 -0.357605 0.193134 -0.119646 0.282386 -0.160809 0.304739 -0.046235 -0.057454 0.282459 0.152976 -0.314154 -0.239822 0.208785 0.053066 -0.118452 0.175408 
49 -0.008327 0.344960 0.081284 -0.073191 0.162671 -0.013160 0.053683 0.000871 0.048355 0.019265 -0.307400 0.039021 0.346636 -0.059550 -0.038604 0.021616 0.426726 0.020943 0.204444 -0.080607 0.045347 -0.029132 0.142493 -0.106388 -0.262686 0.208611 0.362986 0.006675 0.071903 -0.085379 -0.167320 -0.169468 0.141850 -0.196680 -0.074486 0.443549 -0.057649 -0.188838 0.107282 -0.283756 -0.478307 -0.284486 -0.032465 -0.044459 -0.381098 -0.108038 -0.218588 0.009119 -0.132878 0.273576 0.028564 0.107845 0.418150 0.480097 -0.418088 0.201646 0.188357 0.074204 -0.507545 -0.072751 -0.081301 -0.077701 -0.089842 0.072535 
50 0.083960 -0.099133 -0.108682 0.035144 -0.179085 0.457706 0.052709 -0.042438 0.357654 -0.334437 -0.112569 -0.257719 0.305624 -0.135584 -0.176584 0.341816 -0.195902 0.446830 0.132819 -0.009307 -0.095981 0.043554 0.006553 -0.218188 0.135481 0.546630 0.087820 -0.006013 0.065980 0.062289 -0.073639 0.118869 0.370905 0.315460 0.027060 0.256831 0.126684 0.032329 -0.263266 -0.008000 -0.106528 0.227482 -0.548628 -0.347104 -0.107032 -0.210751 0.034646 -0.178188 -0.140106 -0.248472 -0.062013 -0.229476 0.015224 -0.049912 0.085368 -0.060067 0.188859 0.395642 0.156337 0.294850 -0.171825 -0.032318 -0.156608 -0.063547 
51 -0.251993 0.433422 0.250787 -0.436561 -0.030145 0.252546 0.482008 0.021567 0.209099 -0.529522 0.131017 -0.074483 0.056525 0.097841 0.597741 0.235518 0.037211 0.448578 0.145446 -0.185320 -0.386247 -0.050792 0.090255 0.885567 -0.221940 -0.078109 0.130397 -0.175362 -0.277885 0.447669 0.148535 -0.192204 0.269439 -0.153984 -0.417547 0.004385 -0.182769 0.434204 0.148018 -0.157879 -0.116895 0.180281 -0.459686 -0.207127 0.006410 0.431264 0.550133 0.555587 -0.223776 -0.197335 -0.210837 -0.066458 -0.316476 -0.382390 0.053776 -0.244197 0.213430 0.198947 -0.621986 0.055231 0.311752 -0.090278 0.154903 -0.033237 
52 0.051424 0.315907 -0.235601 -0.222263 0.285886 0.529062 -0.437597 -0.383455 0.060032 0.078279 -0.537691 -0.127369 0.078916 0.496725 -0.198863 -0.151775 -0.105524 0.490582 0.221876 -0.182397 -0.100723 0.058894 -0.227424 0.129312 -0.001941 0.150176 -0.256004 0.208668 0.097111 -0.085082 -0.586269 0.041431 -0.062169 -0.036848 -0.341078 -0.105655 -0.165900 0.026542 0.060768 0.030085 -0.008151 0.061858 -0.177619 0.157871 0.251166 -0.279972 0.334652 0.428628 0.427426 0.080398 -0.032026 -0.237420 0.319556 0.213789 0.104592 0.274823 -0.161421 -0.180991 -0.191026 0.296624 0.146596 -0.202583 -0.158293 -0.128688 
53 0.134624 0.025420 0.038478 -0.081853 0.074347 -0.048851 0.429574 0.203404 -0.117297 0.069728 -0.339040 0.323011 0.108205 0.323726 -0.017073 0.073537 -0.270844 0.140044 0.112732 -0.116355 -0.115968 -0.274182 -0.061334 0.049285 0.123273 0.057101 0.028386 -0.061042 0.234728 -0.034520 -0.273916 0.419262 0.043251 0.298373 -0.135474 -0.145709 -0.126239 -0.052705 0.070374 -0.237877 0.243413 -0.246384 0.161949 -0.071289 0.262563 -0.000953 -0.178687 -0.035815 -0.445761 -0.119219 -0.205374 -0.308835 -0.231499 -0.005539 -0.074582 0.045474 0.061875 0.242928 0.168002 0.060998 0.092200 0.151473 -0.192831 0.329016 
54 0.042654 0.159748 0.075902 -0.411037 -0.009532 0.000692 0.244699 -0.054155 -0.033531 -0.001850 -0.277318 -0.366691 -0.057044 0.175089 -0.008498 -0.146272 0.034670 -0.064726 -0.080718 0.183678 -0.206944 0.017143 -0.002966 -0.312997 -0.315158 0.239429 -0.183720 -0.171626 0.153792 0.170715 0.011907 -0.042287 0.209663 0.072296 0.060596 0.004704 -0.427433 -0.023597 -0.047039 0.087347 -0.077733 -0.405898 -0.010405 -0.421514 -0.017701 0.123030 0.090557 -0.142813 -0.102678 0.379458 0.031712 -0.375898 0.068502 0.200023 0.115275 0.223449 -0.010234 0.089698 -0.136075 -0.132088 0.361942 0.094375 -0.164027 0.047024 
55 -0.150719 -0.028487 0.325120 -0.319755 -0.365243 0.320085 -0.112929 0.036461 0.104071 -0.074443 -0.199854 0.174881 -0.156992 0.295521 -0.529302 0.323891 0.140749 -0.202852 0.088935 0.307929 -0.371466 -0.181455 0.052656 -0.045833 0.526180 -0.232383 -0.176586 -0.458465 -0.120130 0.102885 -0.612064 0.253590 0.234273 0.024317 0.312547 -0.112868 0.072864 -0.083945 0.216500 0.514306 0.110218 0.205617 -0.185013 0.013739 0.035511 0.885699 -0.204304 -0.365009 0.414001 -0.547798 -0.310341 -0.330758 0.229402 0.498709 0.047429 -0.177777 0.770750 0.239093 -0.562776 -0.283641 0.251969 -0.499712 0.329475 0.211803 
56 0.011417 0.044339 -0.121490 0.129420 0.030113 0.236438 0.429326 0.042255 -0.120269 -0.178665 0.010553 -0.217701 -0.274076 0.374032 0.020812 -0.050565 0.063678 0.294914 0.297219 -0.051240 -0.031375 -0.111139 -0.093940 -0.028833 0.119184 -0.122902 0.193052 -0.053641 -0.115581 0.026092 -0.027637 -0.104181 0.145280 0.147587 0.177660 -0.218220 -0.353087 -0.391480 0.392539 -0.108944 -0.141987 0.089186 0.053545 0.240044 -0.029590 0.023171 0.137177 0.009938 0.110649 -0.104550 0.160991 -0.228332 -0.251325 0.117854 0.239922 -0.068083 0.377814 0.086598 -0.027615 0.083452 0.011279 -0.026308 -0.282779 -0.140386 
57 0.070513 0.134362 -0.331686 0.046145 0.121333 -0.106670 0.074855 -0.009964 0.265861 -0.246121 -0.020613 0.008999 -0.154708 0.060346 -0.104341 -0.139036 0.173675 0.016550 0.074183 0.043452 -0.252062 -0.062748 -0.085538 -0.208321 0.132798 -0.050837 0.143265 0.027790 -0.110278 0.221545 -0.102185 0.069509 -0.189814 0.359184 0.268844 0.034031 -0.190556 -0.014580 -0.097420 0.363343 -0.029171 -0.346101 -0.173928 0.017886 -0.050352 -0.028207 0.052134 0.026360 -0.519634 -0.364900 -0.168919 0.358148 -0.167629 0.080748 -0.006147 -0.127019 0.153723 -0.067598 0.017989 0.033627 -0.114911 0.149038 -0.172240 0.032673 
58 -0.029193 -0.056349 -0.156247 -0.339841 0.010726 -0.049918 0.355057 -0.063059 0.095954 -0.114582 0.073437 0.264340 0.252591 -0.241042 -0.087528 -0.222211 -0.036710 0.025882 0.099772 -0.152668 0.102997 0.040357 0.027098 -0.096799 -0.178833 0.140211 -0.131186 0.216623 0.070951 -0.023105 -0.241892 -0.283780 0.285538 -0.085558 -0.188721 0.218988 -0.086102 0.348875 0.049317 -0.188922 -0.223733 0.051997 -0.118927 0.220694 -0.034218 -0.137899 -0.007346 0.009349 0.224146 -0.344326 -0.261425 0.292082 0.319752 0.383736 -0.339104 0.460723 -0.174747 -0.577966 -0.073000 -0.138478 0.438529 0.083391 0.070316 -0.455878 
59 -0.037822 0.128861 -0.282353 -0.096067 -0.007781 0.162371 0.107618 0.177942 -0.065057 -0.209275 -0.269955 -0.095945 -0.283668 -0.258600 -0.503460 -0.276431 0.212280 0.362340 -0.056186 -0.135749 0.186973 0.081447 0.009742 0.019209 0.160487 0.059663 0.277935 -0.065348 -0.230811 0.002275 -0.012916 0.228416 -0.010597 0.671676 0.312338 -0.404776 -0.304215 0.227146 0.275738 0.118583 0.275833 -0.120207 -0.203131 0.313093 0.009238 0.088485 -0.125588 0.226609 -0.277065 -0.143936 -0.293563 -0.008135 -0.178801 -0.064365 -0.194686 -0.453888 0.830728 0.174328 -0.035264 0.191174 0.373521 0.230234 -0.268136 0.051612 
60 -0.027941 0.205718 -0.801654 -0.343524 0.008654 0.382112 0.204808 0.038765 -0.202200 0.052606 0.003312 -0.219141 -0.015893 0.333242 -0.070331 -0.338317 0.238243 0.400979 0.079993 -0.075982 0.439894 0.329827 1.041847 0.089084 -0.122710 -0.306527 0.209237 -0.421315 0.644876 0.514930 -0.090764 0.292669 0.019135 0.016804 -0.192141 -0.190684 -0.090148 -0.384327 -0.543222 -0.073485 -0.222817 -0.268659 0.129451 0.019520 0.270999 0.456223 -0.061655 -0.323737 -0.012676 -0.095457 0.107426 -0.147051 -0.562960 0.390096 0.450533 0.100378 0.221777 0.552268 0.040671 0.157090 0.686155 0.218320 -0.070380 0.409914 
61 0.480636 -0.339931 -0.504888 0.043494 -0.077507 0.258606 -0.076233 -0.218696 0.145273 -0.318539 -0.384974 0.028014 -0.215667 -0.123582 -0.093867 0.145030 0.093640 -0.272370 -0.187684 -0.344996 -0.163942 -0.113244 -0.230210 0.242950 0.157812 -0.087091 -0.143883 0.183547 0.091768 -0.004299 0.206512 -0.092413 0.162594 0.591997 -0.024168 -0.231405 -0.131848 -0.509774 -0.176128 -0.383865 -0.219184 0.196272 0.151080 -0.287375 -0.281130 -0.035132 0.066480 0.295129 0.168729 -0.194606 -0.562545 -0.024299 -0.102593 0.015964 0.174662 -0.228809 0.286734 0.278271 -0.147908 -0.161437 -0.044583 0.084065 -0.815641 -0.144921 
62 -0.506933 0.008176 -0.200796 -0.266658 -0.250098 0.058765 -0.326336 0.388288 0.376976 0.106535 -0.505021 0.664523 -0.525996 -0.060350 0.149801 -0.377739 0.220954 0.166532 -0.010041 -0.162254 -0.044335 -0.255850 0.090424 0.185037 0.249772 -0.006722 -0.054260 -0.381065 0.057059 -0.234063 0.117404 -0.336907 -0.402055 -0.309608 -0.184070 0.089109 0.457000 -0.086167 0.522628 -0.009057 -0.243434 -0.452758 -0.268986 -0.655342 0.039637 -0.457852 -0.088703 0.175431 -0.384640 -0.183128 -0.692536 0.276929 0.114108 0.311909 0.563813 0.533905 0.113899 -0.605439 0.607144 -0.156033 -0.292152 -0.331895 -0.244568 -0.387928 
63 0.168049 0.051304 -0.178702 -0.191764 -0.516625 -0.084857 0.238964 -0.061321 -0.069346 -0.126009 0.018035 0.013722 -0.232842 0.074601 -0.487823 -0.230991 0.277596 0.295600 0.285451 -0.076605 -0.107035 -0.005043 0.106459 -0.004252 -0.127733 -0.177762 0.299925 0.082091 -0.124593 -0.128357 -0.126202 0.164936 -0.167748 0.081560 0.482198 -0.194200 -0.330182 0.370584 -0.102838 -0.050058 0.401467 -0.200212 -0.345153 0.102955 -0.065472 0.083896 -0.162056 -0.106694 -0.152770 -0.033828 -0.056067 -0.122079 -0.112478 0.148734 0.251627 -0.265488 0.658751 0.096617 -0.015051 -0.082188 0.366362 -0.127805 -0.263202 -0.082755 
64 0.549256 -0.130173 -0.058818 0.081353 0.019536 0.026703 0.398080 0.002896 0.101080 -0.156078 0.079136 -0.043898 -0.130612 -0.096610 -0.276734 0.293372 -0.342843 0.202855 -0.154879 -0.143898 0.048541 -0.009832 -0.182336 0.331405 0.036771 0.037761 -0.329836 -0.296322 0.098808 -0.287623 -0.010995 -0.131020 0.086226 0.136280 0.312861 0.232160 0.065700 -0.205812 0.092274 -0.240576 -0.066380 -0.185886 0.211352 -0.339443 -0.040609 0.244317 0.251862 0.356700 -0.305192 -0.219477 -0.160315 0.178672 0.044860 0.163374 0.078808 0.300604 0.386433 0.028525 -0.083608 0.010753 -0.036734 -0.100963 -0.153060 0.256479 
65 -0.042501 0.228783 -0.075749 -0.284572 0.013012 0.062572 -0.079209 0.005490 0.489995 -0.019816 -0.006327 0.158232 0.148075 -0.096126 0.039152 -0.003957 -0.203981 0.190167 0.146753 -0.009332 0.001953 0.008413 -0.229785 0.332932 0.040820 0.261237 -0.054596 -0.256492 -0.427684 -0.281321 0.196352 0.433906 0.145748 0.044579 0.211700 0.210102 -0.149631 0.030853 -0.401183 -0.039524 0.024272 -0.031346 0.074616 0.370295 -0.079364 -0.056369 -0.169379 0.055636 -0.105328 0.018532 -0.161888 0.339062 0.178134 0.306582 0.000073 0.400682 -0.118930 -0.033751 0.171253 0.241756 -0.121489 -0.006509 -0.096738 0.214442 
66 0.371703 0.558889 0.273916 -0.386275 0.024329 0.193342 -0.040345 -0.002845 -0.032852 0.002707 -0.102318 0.171381 0.084122 -0.453681 0.160812 -0.243878 -0.162277 -0.133336 -0.142378 0.129968 0.263755 0.017701 -0.163171 -0.352757 0.073714 -0.062445 0.070647 -0.165442 0.397341 0.075308 -0.419683 -0.332089 0.145065 0.000449 -0.019929 0.112344 -0.231266 -0.068909 0.380371 -0.088328 -0.415710 0.145047 -0.140123 0.111389 -0.303910 -0.149774 0.066524 0.120496 -0.350129 0.201341 -0.022282 -0.116773 0.045100 0.217179 0.173285 0.335620 -0.202100 -0.008613 -0.210669 -0.304979 0.055352 -0.013058 0.085772 0.026503 
67 -0.004990 0.231837 0.001094 -0.023267 0.090018 0.264687 0.217475 0.144740 0.062840 0.213077 0.120196 0.032359 -0.142879 0.200579 0.017732 0.148012 -0.153787 0.436150 0.134393 -0.238275 0.112061 -0.203879 0.110575 -0.097097 -0.042329 0.129088 -0.173838 0.126474 -0.299744 0.010311 0.038319 -0.041491 0.248587 -0.120981 0.084661 -0.346983 -0.176391 -0.239632 -0.093827 -0.119919 -0.272805 0.256216 -0.061316 -0.003503 0.034881 -0.073326 0.023160 -0.129686 -0.127264 -0.240244 -0.089544 -0.368729 -0.186694 0.122221 -0.100603 0.214749 -0.079034 -0.235930 -0.135079 0.107625 -0.058612 -0.121819 0.013166 0.228037 
68 0.129862 0.130275 0.116434 0.447696 -0.037009 0.134718 0.302778 -0.038608 0.517721 -0.228094 -0.239053 -0.115491 0.169387 -0.395870 -0.036087 0.179551 -0.115131 0.184143 0.203893 -0.151103 0.259468 -0.183267 0.085261 -0.005641 -0.264207 0.179351 -0.019219 0.025322 0.014714 0.108950 0.232997 0.199317 0.135497 0.255393 0.126990 -0.095278 -0.116563 -0.503312 0.347493 0.270826 0.097239 0.211190 0.292055 -0.254243 0.035939 -0.041187 0.250472 -0.096118 -0.149990 -0.206287 -0.433679 -0.036741 -0.078482 0.172221 0.421725 -0.251280 0.197305 0.049368 0.046503 0.161607 -0.151549 0.071124 -0.163338 0.039590 
69 0.129983 0.055121 -0.063625 -0.133070 0.510176 -0.336127 0.206402 0.015568 -0.276027 -0.151362 0.010000 0.169205 0.196779 0.150714 -0.046264 0.091408 -0.018631 0.191450 0.390621 -0.096547 -0.284510 0.001776 -0.004933 0.026975 -0.161851 0.168264 -0.565114 -0.021390 0.018017 -0.030320 0.017057 0.192896 0.173158 0.044136 0.150468 -0.092286 -0.065230 0.034712 0.148873 -0.046877 -0.231744 0.023278 -0.326124 0.030944 0.059150 -0.067855 0.219650 -0.103277 -0.337828 -0.032341 -0.136115 -0.152506 -0.079754 0.186088 -0.063267 -0.106485 0.088248 0.033966 -0.095558 -0.078785 0.170117 0.173656 -0.307955 0.134093 
70 0.015326 0.255354 0.163128 -0.036435 0.072993 0.239301 0.145942 -0.006105 0.228033 -0.430255 0.174467 -0.174706 0.026868 -0.135235 -0.233466 0.437975 -0.013103 -0.098871 -0.120254 -0.212410 0.067152 0.026889 -0.141904 0.092924 -0.286664 0.079288 -0.137041 -0.126683 0.025449 0.047222 -0.316286 0.102957 -0.284427 0.141609 0.160503 -0.115676 -0.292612 0.043066 0.150658 -0.284510 0.010124 0.003763 -0.164964 -0.108345 -0.010376 0.143086 -0.063038 0.192019 -0.142562 -0.136958 -0.361053 -0.069594 -0.012878 -0.025880 0.056042 -0.019793 0.254919 0.190703 0.194529 0.204843 0.000562 -0.070326 -0.217047 0.162821 
71 -0.117266 0.166744 -0.140156 -0.298240 0.289982 0.217960 0.297664 0.191758 -0.171190 -0.324201 0.203063 0.502166 0.350219 0.129825 0.220418 -0.283296 0.074902 0.057604 -0.064950 -0.263737 -0.214207 0.206374 0.103110 -0.265161 0.119119 0.128515 -0.209449 -0.025937 -0.107646 0.166360 -0.198771 0.073091 -0.262863 -0.039314 0.314329 -0.053030 -0.393176 -0.130649 -0.095178 -0.041077 0.154830 -0.045638 -0.317920 -0.143920 -0.133020 0.297581 0.102698 -0.286509 0.134275 -0.361357 0.131818 -0.200657 -0.258518 0.513989 0.185651 -0.107237 0.068741 -0.124183 -0.119192 -0.289975 0.206204 0.147418 -0.173894 -0.202256 
72 0.418804 0.199068 0.099558 -0.193284 0.025085 0.331809 1.005133 -0.183150 -0.090373 0.895627 -0.247225 0.373094 0.437183 -0.238182 0.105365 -0.865894 0.218012 -0.077703 0.053486 -0.193358 -0.011643 0.428726 -0.294742 0.543704 0.340596 -0.606801 0.212168 0.135713 -0.175618 -0.014564 0.222809 -0.036901 0.341553 0.336868 -0.794907 0.074541 -0.670685 -0.196454 0.636212 0.327609 0.190114 -0.281941 -1.278638 -0.298987 -0.248991 0.494325 0.146460 -0.061866 0.799220 0.154478 0.416763 0.006978 -0.030295 0.065870 -0.198940 0.547318 -0.036199 -0.413372 0.233821 0.189066 -0.120992 -0.716277 0.125607 0.138737 
73 0.369101 0.037494 0.058703 -0.176084 0.349152 0.148224 0.591862 0.147636 0.044091 0.359134 -0.383769 0.312949 0.779187 -0.350016 -0.042746 -0.464413 -0.116350 0.041232 0.105065 -0.160090 0.447075 0.020566 -0.169858 0.571148 0.219751 -0.803425 0.018685 0.244647 -0.153202 0.163039 0.214387 -0.133596 0.264101 0.358039 -1.100516 0.137239 -0.700733 -0.016890 0.381539 1.007443 0.101744 0.030576 -0.926704 -0.209831 -0.214221 0.229711 0.185075 -0.344358 0.327558 0.106581 0.437708 0.185088 0.289598 -0.165121 -0.034765 0.353804 0.129249 -0.468432 0.138982 -0.048224 0.171751 -0.942688 -0.312351 0.099154 
74 -0.030177 0.551544 0.091126 -0.064538 -0.212242 -0.254975 0.167710 -0.142966 0.012117 0.179808 -0.081567 0.019616 -0.086444 0.492787 -0.053463 0.083761 0.201764 0.058917 0.316161 0.193602 0.154080 0.078777 0.222799 0.016113 0.448802 0.266142 -0.006944 -0.004879 0.002116 0.396768 0.106885 0.054549 -0.157510 0.536939 0.299806 -0.255222 -0.268651 0.007819 -0.113342 0.127371 -0.265833 0.236215 -0.095287 -0.036778 -0.019943 0.088676 -0.280432 -0.001246 -0.032712 -0.424515 0.206543 0.167405 -0.206981 -0.309810 -0.088090 0.358528 0.391646 0.126038 0.084619 -0.138649 0.255035 0.021229 -0.284405 -0.103535 
75 -0.339940 -0.002806 -0.222661 -0.527113 -0.368596 -0.234170 0.140659 0.038367 0.250507 -0.051779 -0.033265 0.004646 -0.313845 -0.070560 -0.274993 0.067359 -0.053542 0.159698 0.063790 -0.379418 -0.212814 0.061790 -0.006013 0.252584 -0.173795 0.143887 0.142169 -0.047776 -0.033748 -0.092620 -0.097945 -0.307327 0.060791 -0.076707 -0.016126 -0.327748 -0.389349 -0.134452 -0.036407 -0.078042 -0.104229 0.239239 0.009057 -0.034601 -0.108445 -0.162714 -0.059627 0.018838 -0.138002 0.067925 0.011529 0.291845 0.346560 0.305456 0.027598 0.427206 -0.051802 -0.340312 0.167718 0.128911 0.074573 -0.266411 0.040545 -0.002856 
76 0.344116 0.067158 -0.478268 -0.018669 0.058621 0.044058 -0.036008 -0.011565 -0.034621 -0.102770 -0.055187 0.226252 0.157622 0.024306 -0.153384 0.044654 -0.008136 0.280740 0.009345 -0.299877 -0.040476 -0.132514 -0.106738 -0.109115 0.317285 0.013910 -0.331657 -0.350937 -0.307593 -0.131754 0.033443 -0.060007 0.355371 0.110362 0.148089 0.147670 0.008731 0.009953 0.176126 -0.235601 0.064257 -0.026725 0.211941 -0.021268 0.183902 0.203856 -0.088717 0.368468 -0.212420 -0.085707 -0.136972 0.071987 0.060215 -0.180835 0.164856 0.209854 0.092913 -0.021485 -0.236908 0.200679 -0.065392 -0.011086 -0.194740 0.225127 
77 -0.120711 0.060036 -0.129892 0.069387 0.106766 0.088162 0.125734 0.162989 0.152890 -0.074377 -0.175074 0.336734 -0.317487 0.147336 -0.055456 0.055133 -0.107083 -0.117662 0.253689 0.163981 -0.327266 -0.096823 -0.106276 0.150342 -0.289055 0.040108 -0.021321 -0.057025 0.067283 0.206029 0.138191 0.004984 0.248346 0.409140 0.235352 -0.054982 -0.048300 -0.124838 -0.025439 -0.170423 0.033235 -0.144271 -0.061701 0.244672 -0.047449 -0.306971 0.052792 0.070761 0.002810 0.028440 -0.140073 0.129549 0.296136 0.031941 0.169229 0.304213 0.128696 0.163710 -0.035123 -0.046697 -0.075585 -0.063840 -0.145888 0.323700 
78 -0.032927 -0.160063 0.143907 -0.197638 -0.423983 0.024656 0.210029 0.094325 0.131097 -0.137172 -0.124099 -0.104678 -0.021214 0.348333 -0.006059 -0.099974 0.086051 0.465778 0.005602 0.292483 0.016462 0.128535 -0.115838 -0.182894 0.237717 0.038976 -0.019589 0.213165 -0.121271 0.253845 -0.173309 0.069082 -0.275583 0.061573 0.051018 0.060650 -0.496909 -0.290293 -0.160074 -0.106071 0.055541 0.018128 -0.106720 0.018126 0.297104 -0.061728 -0.180907 0.048046 -0.294192 -0.358378 0.032238 -0.042123 -0.262551 0.162147 0.185438 -0.047248 0.066947 -0.295173 -0.060291 -0.174304 0.101274 0.014505 -0.272742 0.032122 
79 -0.060681 -0.095994 -0.215601 0.157148 -0.267232 -0.063549 0.139950 0.046868 0.005154 -0.075815 -0.074231 0.341660 0.113064 0.017980 -0.007883 0.174626 -0.154829 -0.190287 0.334953 0.018196 -0.111637 -0.030966 0.249444 0.044246 -0.042133 0.114734 -0.012592 0.511121 0.304229 0.334083 -0.454833 0.294241 0.009185 0.534873 -0.034913 0.146521 0.218506 -0.064057 0.208300 -0.410463 0.420632 0.039669 0.006918 -0.186718 -0.208316 0.137244 0.165523 0.232400 -0.225370 -0.371363 -0.066202 -0.292338 0.257931 -0.029815 0.455838 0.157610 -0.065667 0.133584 -0.063237 0.265278 -0.203836 0.298938 -0.120576 -0.105764 
80 -0.019905 -0.013444 0.028333 -0.304389 0.091901 -0.082228 -0.251937 0.138011 0.347230 -0.310102 -0.257307 -0.192254 -0.123961 0.134886 0.257847 -0.321807 -0.152809 -0.335538 0.159619 0.032924 0.320353 -0.374950 0.067724 0.009628 0.146506 -0.155650 -0.649522 0.349321 -0.374705 0.128154 0.197361 -0.072033 -0.094125 0.170731 0.126545 -0.133460 -0.288646 -0.250854 0.167129 -0.540284 -0.144283 0.109797 -0.229637 -0.080970 0.023162 -0.077733 -0.065160 0.055301 0.028290 -0.033257 -0.172805 0.141090 -0.242329 0.176377 0.010175 -0.124737 0.502235 0.100447 -0.335774 0.655489 0.223372 0.370529 0.062621 0.169076 
81 0.050154 0.214948 -0.475631 0.506676 -0.378709 -0.187854 0.065032 0.274167 0.244845 -0.194035 -0.021794 0.535297 0.083336 0.177096 0.284531 -0.011910 0.105104 0.005959 -0.298558 0.072545 0.031188 0.384172 0.225189 -0.173420 -0.164446 0.351244 -0.586418 0.291093 -0.252173 0.059919 -0.181319 -0.224565 0.299972 0.218478 -0.155313 -0.013427 -0.177886 0.258036 0.128697 0.330873 0.232018 -0.218011 -0.037076 -0.151426 0.165739 -0.349774 -0.123601 0.177682 0.482990 0.038031 -0.128070 -0.078219 0.027980 0.255803 -0.436477 0.464443 0.364019 0.219099 -0.093246 0.262095 0.070757 -0.150650 0.082700 0.638824 
82 0.114387 0.004942 -0.091681 0.156027 0.028352 -0.154544 0.114882 -0.131209 0.189547 -0.217318 -0.139398 0.056118 -0.172371 -0.163810 -0.679088 -0.070072 0.011107 0.338907 0.426691 -0.219715 -0.516293 -0.297073 -0.048481 -0.056841 -0.037410 -0.354619 -0.133048 -0.154179 -0.051032 0.118901 0.207032 -0.214285 -0.227626 0.099785 0.096848 -0.100874 -0.313812 0.375574 0.068865 -0.305022 0.236713 -0.016032 0.133628 0.198593 -0.008353 -0.412603 -0.042463 -0.172188 -0.166428 -0.165474 0.231835 0.169133 -0.322969 0.260292 0.306557 0.119359 0.200561 0.003653 -0.091286 -0.118735 0.106299 -0.342933 -0.105332 0.232212 
83 -0.078445 0.398238 -0.165574 0.080473 0.216400 -0.314544 0.113633 -0.119168 -0.027939 -0.010183 -0.036953 0.172502 -0.215255 -0.189711 -0.400948 0.051188 0.033748 0.381493 0.482359 -0.184400 -0.241505 -0.068747 0.014562 -0.250475 0.127794 0.041491 -0.150944 0.120408 0.083425 -0.017269 0.132614 0.225218 0.191388 0.282377 0.315171 -0.259873 -0.185385 0.312105 0.250779 -0.446932 -0.101697 0.161348 -0.244318 0.188460 0.070682 -0.037122 -0.067794 0.139500 -0.042087 -0.127899 0.096792 -0.087943 -0.351384 0.026232 0.012116 0.038940 0.322551 0.105173 0.144168 -0.094560 0.250459 0.014104 -0.300219 0.175702 
84 -0.187279 0.167099 0.151524 0.487623 0.201765 0.089116 0.464738 -0.189078 0.131689 -0.616654 -0.420758 -0.048057 -0.179385 0.226897 0.086218 0.302689 -0.078695 0.740811 0.036358 0.098144 0.054029 -0.106823 0.024351 -0.046206 0.117542 -0.113008 -0.218451 0.186188 -0.087450 0.238010 -0.103935 0.361831 -0.148089 -0.097059 -0.114474 -0.476073 0.012874 -0.051269 0.048036 -0.439412 0.064080 0.164787 0.244083 -0.191857 -0.494805 0.354473 -0.229796 -0.000100 -0.366753 -0.126786 0.320279 0.023091 0.207031 0.022819 0.039789 0.143702 0.224345 -0.358171 0.081677 0.372792 0.023593 -0.080130 0.042845 0.355766 
85 0.172645 -0.044745 -0.050037 -0.180446 0.457673 0.108215 0.219895 -0.368760 0.235247 0.001159 -0.204089 0.490719 -0.038781 0.022519 0.223696 -0.031328 -0.095640 0.347478 0.126068 -0.088587 0.552544 -0.002478 -0.578056 0.261339 0.421346 0.182762 -0.004604 0.203884 -0.091050 0.448757 -0.266300 -0.225121 0.055936 0.071510 0.124950 -0.166929 -0.146163 0.433863 -0.139107 0.052053 0.070436 -0.137338 0.284719 -0.116288 -0.417932 -0.004557 0.464054 -0.021789 0.096022 0.321247 0.145566 -0.282870 0.359405 0.482841 0.285048 -0.029440 0.301345 0.367297 0.276086 0.122379 0.023578 0.141433 -0.027650 0.226772 
86 0.120720 -0.040731 0.036805 -0.283888 -0.134289 0.200656 0.134061 0.254025 -0.333102 -0.154338 -0.139786 0.285258 -0.051416 0.082877 0.045145 -0.108282 -0.010923 -0.003634 0.297043 0.155487 0.048704 0.221105 0.228611 0.062269 0.038966 -0.204541 -0.071712 -0.290698 0.021432 0.165686 -0.281118 0.226769 0.015223 0.131152 0.054794 0.357636 -0.017215 -0.127633 -0.244838 0.122015 0.068662 0.292498 0.096876 0.044694 -0.178909 0.273194 -0.005616 -0.229826 -0.109039 0.018681 -0.196889 -0.151187 -0.201140 0.279339 0.405845 0.071599 0.062636 0.041306 -0.224655 0.104538 0.205227 0.271898 0.207789 0.158899 
87 0.233361 -0.067013 0.169749 0.133055 0.104953 0.323097 0.340241 -0.195961 0.162040 -0.316518 0.020156 0.091446 0.027508 0.241887 -0.009991 0.040181 0.190692 0.385645 0.006813 -0.164929 -0.125147 -0.021414 0.117992 0.086038 0.156987 0.016787 -0.355623 0.046493 0.134627 0.247549 0.263528 0.099446 0.307492 -0.005766 -0.201116 0.008786 -0.077316 -0.000957 0.261336 -0.041210 0.107134 -0.338592 -0.033236 0.155220 -0.012506 0.171787 -0.022085 0.164350 -0.100618 -0.186456 -0.116713 0.038871 -0.156118 0.093190 -0.067067 0.199211 0.036800 -0.007307 -0.282460 -0.066495 -0.340591 -0.091075 0.092807 -0.184997 
88 -0.178487 0.067966 -0.125719 -0.113682 0.307277 0.052700 0.353283 0.278469 -0.330115 0.120055 -0.159051 0.152747 0.196995 0.040560 0.161738 -0.027882 -0.105529 -0.065484 0.023265 -0.240042 0.040353 -0.207967 0.146764 -0.226174 -0.099525 0.168604 -0.304143 -0.012700 -0.210536 0.428744 -0.001353 0.129262 0.243241 0.107592 -0.136224 0.422630 -0.165455 0.011751 -0.148939 0.063058 0.123833 0.151724 -0.007882 -0.117502 -0.070504 0.289884 -0.237392 0.035056 -0.017936 0.098425 -0.041223 -0.405408 -0.061618 0.184758 -0.206413 0.266869 0.179229 0.171370 -0.131711 -0.102960 -0.054083 0.212068 -0.267493 -0.243941 
89 0.146944 0.107498 -0.012634 0.032826 0.029751 0.060925 0.090405 -0.140367 0.301875 -0.281094 0.020863 -0.058772 0.074472 -0.106443 -0.060505 -0.068426 0.059415 0.168558 0.167532 -0.274243 0.059220 0.004295 -0.025752 0.206535 -0.240506 0.222230 -0.191914 0.189289 -0.070738 -0.184557 -0.008399 -0.088024 0.099631 0.133918 -0.081033 -0.258303 -0.138754 -0.277749 0.172008 0.088433 0.261883 0.120527 0.435128 0.132882 0.024514 0.080778 -0.346862 0.035887 0.029735 -0.096965 -0.282654 0.167500 -0.150154 0.254461 0.124555 0.062908 0.097073 0.139138 0.052696 0.249135 -0.044497 -0.049726 -0.197918 0.203093 
90 0.189173 0.042724 -0.108555 0.243440 -0.021193 0.252915 0.125775 -0.174639 0.090364 -0.360208 0.067994 0.087848 -0.233798 -0.048272 0.054418 0.186535 -0.018540 0.068438 0.158140 0.050210 0.070188 0.162869 -0.059742 -0.091624 0.075173 0.022614 0.026340 -0.176875 -0.005007 -0.117104 0.117077 0.373736 0.076530 0.055534 -0.002040 0.179604 -0.249459 0.206075 0.124926 -0.084963 0.029961 0.071853 0.111889 -0.158728 -0.032122 0.167608 0.126433 0.113114 -0.146628 -0.134390 -0.272705 0.257466 0.258383 0.136034 -0.090421 0.107457 -0.086936 -0.124151 0.019251 -0.055714 -0.029888 0.366334 -0.144344 0.474653 
91 0.280159 0.145638 -0.010317 -0.128502 0.280207 0.060911 0.128047 -0.059648 0.130723 -0.174832 -0.125588 0.103755 -0.236653 0.142261 0.083591 -0.079511 -0.031506 -0.200469 0.106551 -0.067193 0.051972 0.195413 0.131453 0.037459 -0.239718 0.045227 0.078010 -0.193228 -0.098381 0.083189 -0.279868 -0.068161 -0.132616 0.217445 0.254019 -0.060301 0.047835 -0.033484 0.012801 -0.152809 0.112679 0.054525 -0.244805 0.084309 -0.174372 0.112841 -0.163569 -0.074639 -0.079218 0.148705 -0.069588 -0.119041 0.012073 0.135811 0.302574 0.274409 0.182587 0.199122 -0.077195 -0.119840 -0.141103 0.048064 -0.072159 0.010320 
92 0.031674 0.103171 0.251768 -0.055594 -0.166111 0.775112 0.612399 0.090577 0.169647 -0.272838 0.254140 0.049926 -0.125630 -0.007915 -0.054259 0.187946 0.130616 0.288872 0.571442 -0.439594 0.118945 0.137923 0.189861 -0.479230 -0.007312 -0.059101 -0.494442 -0.443598 0.014015 -0.124285 0.008948 -0.071970 0.247231 0.773990 -0.032202 0.259879 0.188369 -0.420041 0.056118 -0.292643 -0.074619 -0.235277 0.110487 0.090066 0.123496 0.092306 0.432946 0.656124 0.135450 0.062538 0.132653 0.155408 0.176320 -0.232217 0.408318 -0.018059 0.920526 0.068502 -0.431841 -0.335826 -0.019789 -0.339836 -0.109289 0.242197 
93 -0.264126 -0.007919 -0.596397 -0.464630 -0.275772 0.056604 -0.214682 0.130009 0.328550 -0.408361 -0.112161 0.079973 0.240298 -0.199246 -0.462636 0.349286 0.367565 0.002997 -0.065815 -0.057951 -0.256495 0.023708 -0.028830 0.250255 0.660378 0.020964 -0.091196 0.186954 -0.087831 -0.351970 -0.176921 -0.634352 0.037844 0.136403 -0.381212 -0.159132 -0.072615 0.007409 -0.261887 -0.164990 -0.290680 0.175737 0.187560 -0.206512 -0.495326 -0.306475 -0.049628 0.071981 0.041817 0.434558 -0.469497 0.048097 -0.009370 0.162342 -0.077214 0.500708 -0.206809 -0.531876 -0.028787 0.377505 -0.255099 0.098405 0.014445 0.171613 
94 -0.299720 0.156854 -0.014759 0.350953 0.030112 -0.133091 0.193343 0.032045 -0.188192 -0.395016 0.116248 -0.040376 0.036713 0.357370 0.060872 -0.245103 -0.117345 0.133661 -0.000629 -0.106082 0.041733 0.098762 -0.090117 -0.133321 -0.123446 0.069228 0.233842 -0.412281 -0.149182 0.198279 -0.017557 -0.013482 -0.684877 0.244157 0.074715 0.122345 -0.616485 -0.047498 0.008703 0.108960 -0.277771 0.004576 -0.118515 0.017669 -0.153905 -0.148733 -0.108644 0.239160 0.032066 -0.381437 -0.198336 -0.692309 -0.148468 0.141824 -0.030944 -0.042373 0.077126 -0.095214 0.141252 0.246615 -0.183526 -0.063390 0.164849 -0.226026 
95 0.106120 0.215470 -0.097725 -0.059550 0.202399 0.003210 -0.111706 0.142481 0.294277 -0.287476 -0.093948 -0.087683 -0.242287 0.062401 0.104732 0.079913 -0.089277 0.066180 0.057432 -0.296751 0.164720 0.037632 0.011037 -0.048921 -0.126943 -0.076075 0.115392 -0.211405 -0.085051 0.061646 -0.118000 0.063436 -0.066056 0.171208 0.181770 -0.111059 -0.096747 0.088667 0.163713 0.072521 -0.067373 -0.020581 -0.131859 -0.017711 0.060334 -0.078891 -0.156419 -0.055801 -0.098441 -0.026859 -0.036012 -0.062003 -0.035013 0.174661 0.001214 0.224328 -0.001825 0.071801 -0.088573 -0.188128 -0.062075 -0.035445 -0.113353 0.086601 
96 -0.081533 0.243247 0.075538 0.037800 0.082533 -0.188974 0.112103 -0.218356 0.117875 -0.374969 -0.167501 0.199783 -0.358756 -0.336364 0.003296 0.486776 0.129195 0.016098 -0.056013 -0.419073 0.176733 0.065545 -0.194930 -0.163141 -0.174104 0.293516 0.401473 0.023822 -0.066683 -0.138421 -0.083935 0.110908 -0.008752 -0.266622 -0.293344 0.332911 -0.241949 -0.282275 -0.225164 0.197498 0.051211 -0.058961 0.152419 -0.312436 0.072532 0.015817 -0.311087 0.046561 -0.025580 -0.208727 -0.454803 0.104044 -0.018956 0.067622 0.175600 0.361041 -0.036827 0.044297 -0.112304 0.034493 -0.155212 0.173478 -0.016417 -0.134460 
97 -0.180812 0.015009 -0.118667 -0.256117 -0.431703 -0.280230 0.063498 0.043753 0.351133 -0.286929 -0.195957 0.236723 0.030727 -0.150293 -0.111213 0.008930 0.330156 -0.359299 0.105136 -0.195410 0.154340 0.160207 -0.336653 -0.335829 -0.220306 0.048992 0.016399 0.168333 -0.062766 0.281387 -0.145688 0.001226 0.143241 0.005150 -0.297385 -0.097188 0.163581 0.130786 -0.143676 -0.233588 -0.168983 -0.149241 -0.215326 -0.005090 -0.179489 0.352446 -0.097393 -0.070677 -0.327633 -0.027859 -0.131778 0.086590 0.023187 0.155098 0.262829 0.335056 -0.228325 0.229973 -0.110237 -0.081881 0.000675 0.041474 -0.263091 -0.253168 
98 -0.056760 0.033331 0.475502 -0.028673 0.248929 -0.033928 -0.176174 0.169520 0.099361 -0.365148 0.038332 -0.008180 -0.444054 -0.169831 -0.103712 0.523712 0.159350 0.347848 0.097452 -0.142277 0.315648 0.190776 -0.222613 -0.059159 0.062706 0.273223 0.212312 -0.030785 -0.245626 0.234247 -0.310741 0.009905 0.084572 -0.201219 -0.019960 -0.056137 -0.400876 -0.445153 0.220604 0.047448 0.058462 -0.116739 0.458422 -0.460800 0.090040 -0.073857 -0.378175 0.251371 0.215911 -0.348810 -0.210888 0.148818 -0.080797 0.222641 0.104109 0.142134 -0.321897 0.041699 0.045984 0.266666 0.008752 0.431517 -0.246585 -0.076170 
99 0.377730 0.156193 -0.282010 0.139341 0.029424 0.317837 0.110831 -0.154158 0.428508 -0.019692 -0.123321 -0.053286 0.264982 0.162683 -0.159308 0.138019 -0.444577 0.282025 0.357422 -0.034304 0.192522 0.132938 -0.295340 0.083115 -0.157020 0.239518 -0.107365 -0.340635 0.243930 -0.184853 0.001231 0.040467 0.031205 -0.082444 -0.097315 -0.063324 -0.263791 -0.022810 0.107310 0.086538 0.331941 -0.043441 0.197097 -0.110769 -0.226498 0.064624 0.016862 0.227873 0.073909 0.006111 -0.047463 0.095648 -0.042938 0.197094 0.521112 -0.115063 0.220916 0.018329 -0.040882 0.130103 -0.120626 0.155763 -0.026445 0.155275 
