100 64
0 0.006254 0.006905 -0.005985 -0.005122 0.002135 0.004720 0.001470 0.000330 -0.005630 0.003466 -0.006807 0.001952 -0.001174 -0.001496 -0.005181 -0.002941 0.004030 0.004727 0.004639 0.002496 0.002414 -0.005942 -0.006400 0.007765 0.005939 0.004828 -0.000944 0.006274 -0.000773 0.001148 -0.000233 -0.004661 0.002050 -0.002090 -0.005977 0.007428 0.006843 -0.001711 -0.000353 0.000796 -0.005684 -0.006261 0.007117 0.000098 -0.004035 -0.004753 -0.004807 0.002651 0.000315 0.002080 -0.006584 -0.005950 -0.000203 0.001787 0.003984 -0.004953 0.006374 0.001448 0.001750 -0.000951 0.004666 -0.003575 -0.003277 0.003372 
1 -0.016896 -0.120077 -0.070483 -0.227464 -0.004318 -0.014008 0.040299 0.001587 0.012292 -0.013215 0.098395 -0.169455 0.061817 -0.034775 -0.038762 -0.038958 0.027826 0.157713 0.025570 0.080777 0.040833 0.038371 0.054424 0.093670 0.100353 0.114446 0.001187 0.016759 -0.172309 0.060862 0.109469 0.091083 0.022493 0.088481 0.062835 0.032840 0.128258 0.082768 -0.115703 0.044160 0.036553 0.033266 -0.183654 0.090411 -0.041797 -0.156416 0.098784 -0.217951 0.254668 0.152777 0.383175 -0.182710 0.110217 -0.192078 0.002453 0.024966 -0.104375 -0.024611 0.051872 -0.063133 -0.120535 0.013039 -0.003219 0.266245 
2 -0.022580 -0.049513 -0.077416 -0.204293 0.037017 0.082005 -0.032985 -0.082500 0.156745 0.026213 0.101577 -0.142132 -0.000822 0.123410 0.168245 -0.016776 0.180594 0.038227 0.114538 -0.093891 0.127352 -0.159489 0.008671 0.062857 -0.044799 0.026766 -0.087108 -0.104129 -0.160873 -0.043912 -0.112596 0.064685 -0.040204 0.083048 0.062103 0.131776 0.121003 0.264650 -0.277132 -0.146339 -0.043832 -0.035107 -0.112167 0.172596 -0.141771 0.024730 0.171752 -0.243820 0.459735 0.320307 0.445273 -0.151742 -0.013464 0.019255 0.203854 0.012219 -0.164588 0.044542 -0.111439 -0.129117 -0.000324 0.184016 -0.155428 0.141129 
3 -0.252181 -0.186264 -0.014468 -0.246242 -0.238297 -0.120265 0.092002 0.001299 0.161681 -0.069061 0.153635 -0.038204 0.037236 0.068972 -0.032958 0.059274 -0.088196 -0.000377 0.091001 0.040912 0.044963 -0.050885 -0.056092 -0.111740 -0.142699 0.144968 0.071197 -0.015828 -0.107411 0.112570 -0.097381 0.057534 0.010115 -0.116316 0.040563 0.198863 0.059012 -0.105049 -0.140166 0.084009 -0.054630 -0.049736 -0.228789 0.065081 -0.274978 0.023067 0.021456 -0.031330 0.373325 0.136164 0.324926 -0.132890 0.333499 -0.208158 -0.104658 -0.086339 -0.271052 -0.199684 -0.120332 -0.074416 -0.135388 0.021229 0.128305 0.248590 
4 -0.037288 -0.230036 -0.086390 -0.128610 -0.259015 -0.012222 -0.173153 -0.240931 -0.092380 0.023778 -0.211419 -0.121286 0.233919 -0.059572 0.340244 -0.090145 -0.064027 -0.469776 0.291561 0.251306 -0.096847 -0.358152 -0.327557 0.024220 -0.148101 0.271192 0.198619 -0.077274 -0.048521 0.133486 -0.274778 0.073084 -0.210148 -0.004332 0.159840 -0.194613 0.226764 0.140983 -0.152265 -0.305469 0.115508 0.105723 -0.180557 0.267559 -0.003763 0.001286 0.348389 -0.232827 0.332974 0.207697 0.504682 -0.248525 0.141596 -0.145305 -0.056224 0.197512 -0.066098 0.253280 0.230684 -0.068257 0.019734 -0.223440 -0.087645 0.101459 
5 -0.208036 0.003772 -0.093770 -0.122252 -0.098102 -0.079741 0.010089 -0.007326 0.135589 -0.150942 0.014278 -0.056406 0.067188 -0.074095 0.195122 0.037998 0.016282 -0.060858 0.234320 0.053495 0.040689 0.059301 -0.063425 0.095933 0.099118 0.065907 -0.120917 -0.127790 -0.011304 0.256212 0.124192 0.230325 0.129938 0.042257 0.147484 0.215538 0.046479 -0.038831 0.046334 0.203953 0.180787 0.095428 -0.187553 0.112297 -0.280937 -0.075805 0.317173 -0.038454 0.167892 0.264596 0.378188 -0.303417 0.109308 -0.134691 -0.093420 -0.012652 -0.048525 -0.300335 -0.153181 0.066387 -0.151547 0.015340 0.058003 0.294004 
6 -0.154607 -0.087126 -0.169205 -0.217309 0.118145 -0.110858 0.074476 -0.197608 -0.108618 -0.027627 -0.028000 -0.088540 -0.113842 0.059680 0.038370 -0.089288 -0.030076 -0.019455 -0.010323 0.065603 0.031189 -0.044823 -0.066007 0.120918 0.087343 0.075766 -0.018782 0.084873 -0.268579 0.055762 -0.258931 -0.032312 -0.025567 -0.028310 0.138344 0.213640 -0.042787 -0.085945 -0.044784 0.012842 0.068175 -0.045550 -0.118705 0.250271 0.108780 -0.093851 0.151136 -0.027562 0.235107 0.291643 0.366292 -0.252162 0.100989 -0.112710 0.031339 0.113292 -0.113308 -0.105395 0.045020 -0.041077 -0.106739 0.162467 0.139347 0.252891 
7 -0.183591 0.170542 -0.120256 -0.183368 -0.134525 0.034313 0.211841 -0.063468 -0.132944 -0.040080 0.132347 -0.002810 -0.079085 0.089834 0.142615 0.169358 -0.068966 -0.142453 0.090679 0.011556 0.006453 -0.064808 -0.072365 0.123623 0.136453 0.168540 0.047151 0.251911 -0.229850 0.026013 0.199640 0.239313 0.088605 -0.003591 0.184203 0.261181 0.241253 0.080602 -0.028189 0.053515 -0.285795 0.174655 -0.045462 0.192815 -0.171165 0.012774 0.297705 0.034001 0.313691 0.378577 0.292938 -0.041561 0.321896 -0.220356 0.185702 0.280499 0.098917 0.109703 -0.021162 -0.147648 -0.079260 -0.002259 0.045888 0.083310 
8 0.036228 0.038861 -0.348037 -0.173792 0.038072 0.138859 0.067978 0.059838 -0.011179 -0.164008 0.227915 0.042290 -0.025767 0.153882 0.284960 -0.101716 0.108639 -0.006954 -0.030048 0.076493 0.173291 -0.009820 0.045299 0.118615 0.132593 0.145576 -0.080408 -0.015413 0.040607 -0.144579 0.093303 0.008543 -0.129882 0.274453 0.103539 0.172217 0.224443 0.079045 -0.027675 0.261875 -0.012982 -0.157869 -0.271530 0.196018 0.019816 -0.106438 0.032602 -0.280707 0.167129 0.453016 0.093671 0.121530 0.394038 -0.416268 0.219699 0.095457 -0.191080 0.062392 0.136942 -0.050017 -0.064357 0.038224 0.184986 0.240570 
9 -0.157357 -0.099125 -0.102854 -0.010611 -0.137211 0.014124 -0.123371 0.014713 0.251716 -0.062978 0.231615 0.081051 0.054106 -0.113516 0.113756 -0.150259 0.085263 0.066737 0.040361 0.095511 0.230262 0.158146 -0.046284 -0.079305 0.100565 0.177723 0.135720 -0.013533 -0.108400 0.239480 -0.128049 0.130601 -0.012088 0.155350 0.235704 0.239802 -0.003858 0.107592 -0.146699 -0.157910 0.106974 0.327883 -0.241920 -0.020329 0.006052 0.004762 0.033284 0.042544 0.252171 0.179530 0.360724 -0.267575 0.187303 -0.380831 -0.094862 -0.116358 -0.017826 -0.154603 -0.124777 0.028166 -0.093411 0.108846 0.160813 0.104113 
10 -0.141334 0.103075 0.087326 -0.162750 0.215167 -0.024750 -0.234363 -0.204656 0.065952 0.050121 0.125630 -0.109956 -0.343263 -0.279563 0.194538 -0.171638 0.207794 0.003158 0.254035 0.315062 -0.114626 0.005524 0.258938 -0.093909 0.227625 -0.254759 -0.185433 0.426545 -0.112255 -0.032477 -0.391339 0.515407 -0.193896 -0.045082 -0.347264 -0.218074 0.107741 -0.005685 -0.216612 -0.264097 -0.096455 -0.054461 -0.348327 0.140826 -0.458564 -0.022493 0.157591 -0.318195 0.231536 0.225762 0.049968 -0.265572 0.671102 -0.114643 0.090870 0.105275 -0.292697 0.366303 -0.076817 -0.044157 -0.152178 0.036628 0.117089 0.441956 
11 -0.094911 -0.003185 0.029906 -0.314308 -0.122219 -0.114073 0.271822 -0.317031 -0.130937 -0.363940 0.174910 -0.056284 0.013607 -0.138648 0.138171 -0.086239 0.137695 -0.091251 0.244331 -0.157130 0.438201 -0.080243 -0.070204 0.533254 0.202562 0.064690 -0.040161 0.127174 0.013557 -0.201503 -0.179534 0.039991 -0.101805 0.022503 0.115402 0.144974 0.404515 0.077816 -0.038547 0.064804 0.491293 0.160543 -0.253679 -0.593861 0.118300 -0.361338 -0.069858 -0.122968 0.499141 0.067198 0.305150 -0.094860 0.068880 0.195754 0.004100 0.407196 -0.607906 0.332982 -0.369177 -0.248240 -0.050245 0.415670 0.078609 0.204543 
12 -0.228268 -0.022947 0.275825 -0.241912 -0.117142 -0.060601 -0.193490 0.215504 0.110341 0.042531 0.089850 0.012763 -0.182001 0.269047 -0.138512 -0.014240 0.050521 -0.210932 0.043391 0.018362 -0.190953 -0.350029 0.158976 0.025157 0.024852 0.102313 -0.289452 0.018990 -0.296047 -0.055382 0.140844 -0.179464 0.112525 -0.134110 0.236255 0.127228 0.158666 0.138716 -0.080768 -0.151524 -0.032733 0.153012 -0.430074 -0.162400 0.041982 -0.287868 -0.083454 -0.276395 0.351889 -0.035810 0.330569 -0.085665 0.398505 -0.236640 0.057674 0.015751 0.063434 -0.068475 0.046836 -0.161103 -0.285574 0.027126 -0.040178 0.182822 
13 0.053891 0.092952 0.111623 -0.234398 -0.069921 -0.116740 0.034038 -0.243064 0.111262 -0.200048 -0.085839 -0.011272 0.171278 0.101769 0.070808 -0.174917 0.087468 0.006337 0.053165 0.033434 -0.125842 0.048783 0.057668 0.201886 0.109625 0.265430 0.152898 -0.164249 -0.205267 -0.160652 0.036443 -0.122157 -0.047399 0.079355 0.156722 0.023530 0.008962 0.256466 -0.088082 0.154892 -0.182031 -0.134839 -0.171509 0.162129 -0.227762 -0.101695 0.081087 0.043246 0.182605 0.164512 0.070894 -0.479374 0.116893 -0.302246 0.001035 0.255877 -0.127999 0.067155 -0.041643 -0.015779 -0.181462 0.046232 -0.056441 0.377799 
14 0.114920 0.030184 0.106580 -0.364513 0.147700 0.252717 -0.060260 -0.000946 0.150853 0.145508 0.141135 -0.238372 -0.211856 0.052704 -0.152201 -0.194914 0.065556 -0.153205 0.102955 -0.059626 -0.010298 0.126985 -0.036597 0.066208 0.178595 0.295789 -0.368684 0.026801 -0.002538 -0.170602 0.052955 0.062882 0.306963 0.076227 0.124145 0.116742 0.408235 -0.166225 0.184760 -0.005969 -0.114199 -0.123088 -0.285902 -0.351143 -0.183537 0.158687 0.286127 0.062080 0.261395 0.066378 0.461617 -0.356218 -0.166478 -0.199752 0.179815 0.040080 -0.174652 0.411034 -0.182540 0.067469 0.091127 0.394845 0.008205 0.470013 
15 -0.104584 -0.143712 0.028856 -0.098007 -0.130764 -0.212426 0.105514 -0.075863 -0.028177 -0.081555 0.053259 0.132633 0.034758 0.200729 -0.013868 -0.182216 0.150249 0.068108 0.129905 0.074990 0.014189 0.087202 0.070183 0.057159 0.082865 0.053035 0.076134 -0.030189 -0.180675 0.133038 0.074889 0.283273 -0.011960 0.185004 0.207749 0.059604 0.280525 0.006241 0.004563 0.212609 0.020074 0.126235 -0.043940 0.152070 -0.295915 -0.042075 0.092154 -0.262410 0.314739 0.140966 0.401051 -0.229012 0.119530 -0.013191 -0.065371 0.109021 0.008033 0.004032 0.272554 -0.043957 -0.104364 -0.034228 0.116165 0.250509 
16 -0.336339 0.007226 -0.049144 -0.476745 0.111907 0.078989 -0.205381 0.167548 -0.012065 -0.100724 0.249120 -0.151298 0.191686 0.255660 -0.071932 0.034563 0.206085 -0.296713 0.130333 -0.089932 0.031389 -0.095234 0.106985 -0.117210 -0.063399 -0.184900 -0.360454 0.037151 0.385510 0.044484 0.232067 0.079085 -0.131757 -0.042749 -0.013812 0.047955 0.178422 0.365770 -0.149328 0.136592 0.104413 0.080343 -0.318906 0.122843 0.040666 -0.044226 0.238088 -0.230327 0.232579 0.043883 0.409091 -0.148822 0.078059 -0.237620 0.197540 0.269778 -0.378843 0.033195 -0.081825 -0.275519 -0.381860 -0.055866 0.026542 0.194113 
17 0.010657 0.137008 -0.243151 -0.121930 0.016680 -0.000492 -0.256122 0.001995 0.276603 0.032792 -0.147201 0.163540 0.036317 0.037416 0.545932 -0.205567 0.123957 -0.204480 0.102750 -0.531321 0.086561 0.032707 0.019693 -0.319560 -0.256477 0.241783 -0.154180 0.189147 -0.226778 -0.208271 0.079863 -0.123901 0.047928 -0.080739 0.099943 0.110930 0.154128 -0.166612 -0.284601 -0.254198 0.052590 -0.154753 0.172998 -0.031188 -0.037687 -0.587714 0.292614 -0.061479 0.461830 0.085086 0.187385 -0.055813 0.276030 -0.224552 -0.310981 0.452893 -0.132768 -0.011881 0.238864 0.218312 0.138893 0.012394 -0.163401 -0.019672 
18 -0.135493 0.280393 0.038444 -0.367039 -0.042355 0.071404 -0.093596 -0.109299 -0.044036 0.360938 0.217569 -0.108764 0.163021 0.142764 -0.220759 0.027739 0.307781 0.143363 -0.044325 0.174126 0.025410 -0.261616 0.146187 -0.194087 0.096559 0.047241 0.054833 -0.097888 0.034337 -0.197896 0.059467 0.114322 -0.005716 -0.031952 -0.137513 0.120662 0.189391 0.005388 -0.359085 0.099981 0.041082 -0.025816 -0.041133 -0.234619 -0.161084 -0.219617 0.308452 -0.169768 0.256165 0.431295 0.541631 -0.120678 0.234685 -0.046199 0.393683 0.313021 -0.215993 -0.059173 0.058400 0.162066 0.182316 0.073724 0.203889 -0.069338 
19 -0.025149 -0.025355 -0.163336 -0.066105 -0.183570 -0.061239 0.123244 -0.137390 0.203194 -0.095005 -0.011357 -0.160350 -0.004602 -0.147206 0.039581 -0.206476 -0.023476 -0.063030 -0.011643 0.213246 -0.114982 -0.000036 0.124279 0.221436 -0.013485 0.242647 -0.093396 -0.153896 -0.048026 0.269350 -0.032245 0.328339 0.168843 0.078211 0.347614 0.089544 -0.112398 0.085762 0.082194 0.173780 0.130121 0.020189 -0.013570 -0.011535 -0.163702 -0.230105 0.058982 -0.066281 0.202832 0.274132 0.367289 -0.259890 -0.001077 -0.052083 -0.026024 0.052705 -0.089929 -0.072901 0.109262 -0.067434 -0.311283 -0.055459 0.047390 0.425320 
20 -0.137927 -0.060412 0.008750 -0.247639 -0.033219 0.045105 0.066964 -0.101304 0.050917 -0.119775 -0.028582 -0.162026 0.200841 -0.127780 0.015196 -0.043790 -0.130910 -0.004971 -0.056864 -0.070362 0.037494 0.062199 -0.143374 0.173947 0.122863 0.003529 0.045360 -0.079339 -0.189961 -0.112355 -0.001785 0.157873 0.359390 0.056265 -0.066265 0.185787 0.199989 0.192183 -0.147072 0.030840 0.020456 0.005816 -0.041262 0.318590 -0.165595 -0.300353 -0.006362 -0.163438 0.208872 0.453442 0.144469 -0.272000 0.160881 -0.210514 0.003075 0.164128 -0.125913 -0.058632 -0.057200 -0.129811 0.081930 -0.019957 -0.014687 0.151678 
21 -0.255140 -0.085422 -0.010331 -0.191077 -0.089694 0.097166 -0.000669 0.055464 0.263126 -0.059251 0.139139 -0.146223 -0.056052 0.097021 0.089748 -0.137164 0.031581 -0.041468 -0.189774 0.038663 -0.071538 -0.226449 0.018061 -0.036974 -0.047022 0.020168 0.012689 -0.110073 -0.071221 0.122082 0.039498 0.096798 -0.078070 -0.081789 0.010894 0.127100 0.213573 0.054406 -0.206753 0.169780 -0.114218 0.158198 -0.114158 -0.140763 0.058231 -0.030947 0.131415 -0.085362 0.289949 0.265184 0.317032 -0.061412 0.151165 -0.203774 -0.110832 0.108205 -0.165701 -0.171597 -0.118798 -0.039706 -0.165248 0.035768 0.120255 0.351726 
22 -0.330042 0.294496 0.298479 -0.164027 -0.261393 0.198728 0.325131 0.085775 -0.134709 0.134523 0.072003 -0.179389 -0.204915 -0.199692 0.172091 -0.172208 0.398601 0.197306 0.173958 0.221273 0.196741 -0.179558 0.088064 -0.008881 0.084585 -0.232589 0.082407 0.160435 0.006157 -0.049890 -0.359661 0.285950 0.347616 -0.047724 0.117913 -0.086521 0.059060 0.040084 -0.205448 -0.075072 0.169719 -0.146841 -0.099494 0.188160 0.095482 -0.060720 0.043484 -0.181934 0.136701 0.179016 0.246333 0.078641 0.071272 -0.502885 -0.030598 0.260922 -0.160383 -0.178196 -0.038433 0.040294 0.092083 0.098589 0.025179 0.485381 
23 -0.115566 -0.010903 0.083634 -0.118612 -0.125776 -0.242650 0.059696 0.007609 0.067303 0.028040 0.061234 -0.013217 0.015039 -0.130053 0.078969 -0.094073 -0.071236 -0.289602 -0.013047 0.083855 -0.063282 -0.208520 -0.005501 -0.057934 0.101934 0.113473 -0.034120 0.122325 -0.419867 0.134998 0.048740 0.060085 0.057795 0.409911 0.007460 0.119538 -0.109310 0.117082 -0.080014 0.117166 0.078427 0.163286 -0.043026 -0.116425 -0.138715 -0.189044 0.006789 -0.180135 0.191263 0.261250 0.446922 -0.186993 0.207329 -0.092633 0.011845 0.054330 -0.007995 0.017575 -0.126507 -0.055784 -0.220465 0.076675 0.000743 0.252933 
24 0.074499 -0.080837 -0.093837 -0.160004 -0.124852 -0.092141 0.201689 -0.100391 0.073313 -0.058498 0.071572 -0.035654 0.001551 0.096372 0.125018 0.030953 -0.038274 -0.210881 0.014017 -0.058716 -0.080035 0.058574 0.027113 0.010377 0.222455 -0.079785 -0.107878 -0.020630 -0.282612 -0.016913 0.042089 0.269003 0.296109 0.103582 0.216724 0.363725 0.282208 -0.122395 -0.143589 -0.020686 0.078889 0.068966 -0.161420 0.356163 -0.126531 -0.279967 0.010694 -0.354737 0.137676 0.393746 0.232161 -0.073787 0.246203 -0.291108 0.217847 0.006057 -0.149513 0.125758 0.051271 -0.043071 0.020955 0.041249 0.146734 0.011981 
25 -0.179280 -0.137934 -0.036415 -0.095329 -0.128660 0.236968 0.037279 -0.097823 0.239999 0.113786 0.170591 -0.301837 0.105863 0.012896 -0.108965 -0.073071 0.295976 -0.120353 -0.052640 -0.244906 -0.008592 -0.184288 0.025586 0.152059 0.192257 0.174460 -0.044262 0.230731 -0.054457 -0.376629 -0.067928 0.386473 -0.149419 0.047700 0.161463 0.015535 0.215313 0.056134 -0.232683 -0.186787 0.161868 0.002778 0.022559 0.031724 -0.133610 -0.075391 0.141089 -0.130168 0.157752 0.138182 0.362841 -0.353758 0.433615 -0.072997 0.011435 0.173128 -0.030358 -0.242537 -0.254452 0.163095 -0.112117 0.163951 -0.135449 0.121387 
26 -0.042518 0.027599 0.117145 -0.044436 -0.144279 -0.108859 -0.205122 0.121982 -0.032951 0.180010 0.324075 0.154287 -0.190359 -0.080902 0.298103 -0.022000 -0.272715 -0.005726 0.383491 -0.038158 0.002742 0.074648 0.120060 0.026109 0.396694 0.224960 -0.070356 -0.239561 -0.217638 0.270152 -0.027473 0.133184 -0.015361 0.374870 0.123119 0.173096 0.083250 0.116974 -0.066551 -0.096463 0.398650 0.241919 -0.059065 -0.120050 0.049498 -0.407761 0.058018 -0.126000 0.149071 0.277389 0.272407 -0.478879 0.256502 -0.127953 0.172592 0.050770 -0.071285 -0.190432 -0.067515 -0.340305 0.024474 0.141119 -0.115558 0.207940 
27 0.026576 -0.025342 0.044438 -0.366017 0.001415 0.057131 -0.075180 0.130862 0.278733 -0.008017 0.080309 -0.016567 0.020898 0.243679 -0.052113 -0.253823 0.030022 -0.079759 -0.029370 -0.003127 -0.262621 -0.225666 0.178148 0.161774 0.021729 -0.029999 -0.099299 -0.076481 -0.096500 0.069697 0.034480 0.050029 -0.103939 0.022817 0.204615 -0.018565 0.408380 0.106659 -0.165830 0.124698 -0.076378 0.074043 -0.083122 -0.194127 0.154890 0.028048 0.400309 -0.030436 0.246474 0.244794 0.379548 -0.041775 0.205004 -0.145442 0.103330 0.303848 -0.042204 -0.174329 -0.156388 -0.075956 -0.173614 -0.064629 0.177602 0.253508 
28 0.074505 -0.104999 -0.176114 -0.363367 0.113193 -0.003745 0.191139 -0.150789 -0.066012 -0.225654 -0.298360 -0.076322 -0.028950 0.279745 0.029494 -0.036179 -0.041970 -0.084173 -0.152731 0.001004 0.332477 -0.217383 0.161578 0.041776 0.614720 0.039808 -0.204151 0.001994 -0.068131 0.177222 -0.158968 -0.015782 0.019689 -0.169022 -0.126578 -0.198398 0.092149 0.160749 -0.273508 0.189898 0.250665 0.139927 0.006471 -0.068839 -0.280695 -0.169101 -0.000528 -0.159127 0.395762 -0.166968 0.686312 -0.222050 0.205346 -0.479531 -0.098884 -0.043624 0.341099 0.162839 -0.065637 -0.017884 -0.157862 0.194979 -0.180642 -0.143105 
29 0.038476 -0.027903 0.067404 -0.267317 -0.051838 -0.144424 -0.215773 0.236124 -0.008422 0.106062 0.004045 -0.122584 -0.096349 -0.095200 0.107070 -0.049167 0.310716 0.061358 0.025185 -0.020388 0.242597 -0.220228 -0.066684 0.107143 0.297780 0.019096 -0.084347 0.062474 0.106460 -0.042954 -0.205641 0.022589 0.226635 0.214818 0.154529 0.161511 0.362637 0.094699 0.191273 0.038248 -0.255355 -0.189369 -0.068211 -0.112090 -0.310486 0.029723 0.110594 -0.151118 0.019064 0.221591 0.425421 -0.195792 -0.044060 -0.380021 0.176429 0.183915 -0.117204 0.027073 -0.290206 -0.189997 -0.055607 -0.005553 0.418987 0.440154 
30 0.101295 -0.047723 -0.015556 -0.326110 -0.233355 0.445075 0.047690 -0.137973 -0.042310 0.179674 0.195348 0.005951 -0.134861 -0.018687 0.227911 0.067959 -0.011020 0.008232 0.062469 0.026550 0.260745 -0.112875 -0.147939 -0.131471 -0.051808 0.219374 -0.201517 0.052794 -0.036437 -0.166097 -0.048124 0.017723 -0.113889 0.067054 -0.012992 0.076368 0.409946 0.376242 0.045308 0.185724 0.034399 -0.081151 -0.237586 0.178702 0.201912 -0.187244 0.311112 -0.025347 0.164008 0.084020 0.363339 -0.137756 0.339828 -0.043226 -0.031394 -0.290543 -0.144517 -0.220780 0.012908 -0.195405 -0.200367 0.488633 0.306889 0.334830 
31 -0.406751 0.299863 -0.216019 -0.031585 0.141400 0.003911 -0.107334 -0.026828 -0.010222 -0.143931 0.026566 -0.006559 -0.104428 0.055819 -0.016199 0.068667 0.530245 -0.214582 0.144107 0.241153 0.066148 0.121555 0.162390 0.239924 0.103518 0.036006 0.004012 0.058151 -0.388337 0.065957 0.244408 0.195797 0.182715 0.096076 -0.143758 0.138727 0.338565 0.119379 -0.425519 -0.057262 0.029142 -0.201557 0.096345 0.175557 0.212508 -0.137434 -0.086060 0.160221 0.277932 0.082350 0.239807 -0.358306 0.110827 -0.354057 -0.047463 -0.065395 -0.306197 0.135059 -0.060817 -0.093002 0.087478 0.391133 0.002576 0.117721 
32 0.340824 -0.176182 0.054468 -0.231451 -0.051177 -0.017079 -0.288623 -0.362785 -0.217477 -0.144891 -0.152194 0.312853 -0.086242 0.068382 -0.340016 -0.456079 -0.088732 0.027776 0.238179 0.160528 -0.206979 -0.149461 -0.409645 0.139755 0.134492 -0.307412 0.255130 0.215375 -0.155070 0.110813 0.318635 0.279767 0.328163 0.214750 0.194422 0.018412 -0.047530 -0.075988 0.196129 0.246226 -0.047540 0.253871 -0.173625 0.154925 -0.049344 -0.292006 0.078157 -0.031712 0.371346 -0.072583 0.528234 -0.211474 -0.016239 -0.427684 -0.032401 -0.043741 0.005778 -0.351345 -0.227402 0.075881 -0.185112 0.006494 -0.104761 0.166677 
33 -0.245950 0.209959 -0.108733 -0.155070 0.142810 -0.088737 0.159858 -0.150918 -0.029261 -0.064499 0.084180 -0.035161 -0.233405 -0.184321 -0.189674 -0.066371 0.276450 -0.045437 0.120630 -0.092222 0.027080 -0.154180 0.128143 0.006424 0.030041 0.190019 -0.174002 0.022685 -0.141397 -0.098049 0.012346 0.416720 0.255618 -0.060622 -0.155750 -0.090516 0.281819 0.177595 -0.329142 0.042212 0.025486 0.031047 -0.034232 0.077581 0.138502 0.062275 0.033294 0.135846 0.129381 -0.137204 0.451260 -0.273235 0.048951 -0.427964 0.024594 -0.192784 -0.440682 0.150111 -0.058976 0.162419 0.161168 0.031320 0.209673 0.341392 
34 -0.186625 -0.066507 -0.008783 -0.313597 -0.178058 -0.159350 0.017213 -0.220858 -0.011639 -0.076445 0.107298 -0.399570 -0.001029 0.015539 -0.081723 0.088026 0.178239 0.271615 0.161096 -0.197815 0.030978 -0.213444 0.160117 0.036746 -0.187208 -0.120732 -0.070656 0.142816 -0.080429 -0.027809 -0.000680 0.165835 -0.109877 0.082064 -0.078827 0.089835 -0.193782 0.123525 -0.184484 -0.144026 0.300792 -0.126176 -0.105998 0.206921 -0.143859 0.090125 0.402098 -0.083781 0.233684 0.061822 0.219355 -0.188768 0.589966 -0.381069 0.223008 0.001644 -0.142215 0.027173 0.179881 -0.244254 0.151651 0.250708 0.302491 0.275245 
35 -0.086898 -0.155895 0.011411 -0.199336 -0.062808 0.111654 -0.516955 -0.121973 -0.095826 0.032765 0.163309 -0.429677 0.325894 0.336799 0.069727 0.155894 -0.089597 -0.170743 -0.085500 0.221733 0.148854 0.506737 -0.033257 -0.041717 -0.015317 -0.137947 -0.176653 0.200553 0.069848 -0.019797 -0.149067 -0.042308 -0.080017 0.296473 -0.004508 0.037351 0.072919 0.130197 -0.141867 0.242958 -0.029163 -0.100162 0.165826 0.058435 0.208406 -0.076204 0.058450 -0.122465 0.241526 0.410817 0.226625 -0.175520 0.084007 -0.511688 0.069041 0.087740 -0.227860 0.257131 0.007897 0.183041 -0.100576 0.097141 -0.119136 0.383828 
36 -0.187870 -0.122149 0.273680 -0.125553 0.140459 -0.313112 -0.316489 0.058796 0.123653 -0.063442 0.003240 -0.094546 0.228540 0.180468 0.138608 0.077597 -0.220277 0.009519 0.058311 0.050509 0.386940 -0.217999 -0.113307 0.401540 0.188701 0.230029 -0.428150 -0.051536 -0.239547 -0.028671 0.023908 0.242535 0.164312 0.450743 -0.081768 0.349151 0.440722 -0.091113 0.004371 0.007670 -0.317619 -0.279623 -0.234855 0.131176 -0.159682 -0.264706 0.023600 0.288012 0.123252 -0.046046 0.357420 -0.110705 0.049460 -0.157250 0.065310 0.211950 -0.220583 -0.120233 0.022028 -0.038711 -0.052597 0.647413 0.011201 0.351391 
37 -0.091149 -0.111303 0.100891 -0.258666 0.085810 -0.079562 -0.053549 0.002698 0.062577 -0.032051 -0.013624 0.040393 -0.123716 0.052448 -0.086791 0.008746 0.143628 0.184887 0.321462 -0.123404 0.182529 -0.160579 0.126247 -0.253179 -0.081593 0.343826 -0.004329 -0.128352 -0.194947 0.399684 0.033162 0.083113 0.116115 -0.155095 -0.142564 -0.036175 0.202816 0.190104 0.024458 0.044108 0.125128 0.014929 0.238328 0.216903 0.028775 -0.315901 0.282784 -0.198899 0.073829 0.375973 0.426610 0.110945 0.350938 -0.342799 -0.067334 0.340751 -0.121552 0.264761 -0.092453 0.122265 0.051445 0.443104 -0.157154 0.066997 
38 -0.194544 0.161246 0.296140 -0.288618 0.144845 -0.097320 0.046725 -0.258900 0.067861 0.034707 -0.010629 -0.145785 -0.013771 -0.114046 0.152293 -0.118869 0.118484 -0.021287 -0.050103 -0.057524 0.218588 -0.012237 -0.245567 -0.018469 0.062816 -0.011523 -0.045199 -0.232604 -0.337752 0.248047 0.099707 -0.161318 0.030895 -0.047466 0.308124 0.138710 0.007004 -0.007719 -0.260098 0.162226 -0.262300 -0.071919 -0.239182 -0.005912 0.052373 -0.172705 0.189826 -0.065514 0.143288 0.240787 0.457728 -0.393321 0.294563 -0.160462 0.346666 0.041394 -0.199296 0.006050 0.233607 0.056201 -0.049259 0.062249 0.025289 -0.021626 
39 -0.121535 0.084277 0.001075 -0.264277 0.232120 -0.276607 0.243383 -0.214592 0.075020 0.207186 -0.087102 -0.181033 0.201825 -0.254616 0.043032 -0.044305 0.168140 -0.043043 0.224887 -0.069116 0.045965 -0.113629 -0.076044 -0.003407 -0.096211 0.367509 -0.060039 -0.037119 0.060843 -0.101501 -0.015885 -0.079333 -0.202177 0.139518 -0.037665 0.483727 0.158922 0.249989 -0.054881 -0.096691 0.152007 0.592412 -0.189183 0.082572 -0.019156 -0.446435 -0.204139 -0.103808 0.337135 0.223727 0.148912 -0.100983 -0.171881 -0.327066 0.105156 0.008785 0.235573 -0.140059 -0.000397 -0.185183 -0.270084 0.275710 0.170750 0.567317 
40 0.135829 0.129368 0.046737 -0.027562 -0.113754 -0.047681 0.003472 0.006840 0.017414 -0.193030 -0.027980 -0.091102 0.067231 0.105503 0.044155 -0.230206 0.158747 -0.095890 -0.002199 0.370302 0.090133 -0.051184 0.148563 -0.128074 -0.188786 0.207175 0.154366 0.127435 -0.293572 0.101615 0.154025 0.101627 -0.000025 0.216624 0.039325 0.267243 -0.037408 0.212749 0.055996 -0.032275 0.070784 0.052604 -0.246604 0.301115 -0.278771 -0.330327 -0.099559 0.070753 0.224572 0.241343 0.217202 -0.547588 0.003046 -0.166453 -0.148198 0.171376 -0.111805 0.161940 -0.290922 0.033898 -0.089765 0.011327 0.030579 0.195553 
41 -0.351589 -0.098847 -0.127322 -0.242432 -0.147538 -0.157084 0.047607 -0.033057 0.080996 0.277343 0.045423 -0.110891 -0.172395 0.022616 -0.167775 0.005159 0.105081 0.060673 0.035282 -0.080510 0.127621 -0.084048 0.308384 -0.204069 -0.073998 -0.104446 -0.007523 -0.069572 -0.058167 0.008894 -0.132391 0.118258 -0.123205 -0.040397 0.242514 0.062979 -0.113242 0.060745 -0.196128 0.061480 0.057504 0.050385 -0.148597 0.170266 -0.072086 -0.122953 0.233026 -0.267327 0.540454 0.169410 0.202675 -0.038923 0.322460 -0.158155 -0.002914 -0.095837 -0.341991 -0.086171 -0.111061 -0.222880 0.019496 0.175802 -0.039405 0.177793 
42 -0.043579 0.210553 0.113783 -0.242916 -0.123659 -0.088433 -0.096587 -0.085971 -0.139433 -0.246868 0.092645 0.008137 0.154739 0.125789 -0.051909 0.088503 -0.004097 -0.018620 0.032612 -0.112442 0.066887 0.284683 0.086891 0.128696 -0.145791 0.344131 -0.068804 0.011955 -0.261767 -0.312881 -0.199065 0.122536 0.108111 0.152636 0.192636 0.255169 0.148078 0.034250 -0.290407 -0.051802 -0.115781 0.067823 -0.124255 0.113561 -0.167715 -0.311534 0.128571 -0.111429 0.208583 0.091545 0.432803 0.033491 0.105589 -0.367617 0.108269 -0.066988 0.005097 0.117382 -0.104212 -0.042288 -0.207697 -0.048035 0.131404 0.099604 
43 -0.031969 -0.421832 -0.122120 -0.178770 -0.174270 -0.051898 -0.236259 0.132802 0.156594 -0.247190 0.278424 0.027966 0.123971 -0.386231 0.218002 0.080150 0.253710 0.240799 0.086011 0.178896 0.157382 -0.171082 0.084620 -0.146547 -0.124171 0.455206 -0.405684 -0.216247 -0.429155 -0.486439 0.205106 0.042267 -0.179501 -0.370991 0.142515 -0.144936 0.215901 -0.400672 -0.025654 0.039134 -0.162173 0.110703 0.056327 0.114769 0.117839 -0.333124 0.022874 -0.223953 0.241126 0.571762 0.598833 -0.409209 0.123367 -0.422921 0.152648 0.276237 0.028008 0.102983 -0.035928 -0.104299 0.217772 0.032380 -0.231921 0.008652 
44 -0.160297 -0.160945 -0.088017 -0.145319 0.881264 0.025395 0.198339 -0.127621 -0.022983 -0.093398 0.158305 0.280251 0.681158 0.527330 0.872580 -0.002067 0.156481 0.637497 -0.313251 0.071047 -0.585447 0.173291 -0.163008 0.495294 -0.244727 0.016542 -0.297039 0.028809 -0.246003 0.309984 -0.179232 0.316914 0.006058 -0.199869 0.232050 -0.151552 -0.018239 0.106294 0.072221 0.129728 0.331151 0.351902 -0.029824 -0.371705 -0.229951 -0.792955 0.169789 -0.293590 0.336411 -0.532942 0.483507 -0.174324 0.770240 -0.126604 0.456226 0.179610 -0.117405 0.496850 -0.841259 -0.243381 0.110761 0.555898 -0.045746 -0.027410 
45 -0.074297 0.052142 0.038817 -0.177648 -0.106622 -0.118828 0.131031 -0.054318 0.064410 -0.291724 0.102421 -0.170402 -0.051808 -0.138399 0.128136 -0.009616 0.131660 -0.087104 -0.227710 0.150878 -0.208387 0.017193 -0.173054 -0.039043 0.123594 0.137698 0.125655 0.005219 -0.238365 0.132437 0.200221 0.183361 0.039416 0.130518 0.129660 0.185406 -0.124033 0.128253 -0.001930 0.013449 0.068545 -0.242136 -0.321199 0.006225 -0.217885 -0.296605 0.237282 -0.138499 0.255380 0.162422 0.409571 -0.038518 -0.110957 -0.198914 -0.232777 -0.001983 0.014662 -0.107218 0.010615 0.002382 -0.023452 -0.013083 0.038581 0.438022 
46 -0.036217 -0.093931 -0.261787 0.011971 0.068605 -0.276468 0.058459 0.078342 0.035753 0.102994 0.417072 -0.294572 0.060287 0.021778 0.074724 -0.158913 -0.147755 -0.042773 0.158182 0.207876 -0.090032 -0.071834 -0.001827 -0.086157 0.171660 0.146600 -0.104887 -0.032151 -0.120201 0.203100 -0.162045 0.081265 0.192800 0.059002 0.035209 0.150670 0.297594 0.124882 -0.023271 0.176267 0.203276 0.088804 -0.142053 0.058346 -0.010305 -0.062543 0.342480 -0.092621 0.230512 0.106884 0.434492 -0.127160 0.024735 -0.337808 -0.025635 -0.043950 -0.083960 -0.299825 0.058275 0.040910 0.135165 -0.130213 0.036640 0.207886 
47 -0.256527 -0.019043 0.088715 -0.020555 -0.102596 0.025452 0.088339 -0.082438 0.042847 -0.236727 0.231129 -0.034737 -0.043097 0.146666 0.050494 -0.211357 0.028759 0.003438 -0.073442 -0.099945 0.119218 0.150169 -0.252036 0.066685 0.148003 0.044951 -0.119681 0.147699 -0.059079 0.060973 0.140588 0.116999 -0.034578 0.003404 0.002326 0.394744 0.252184 -0.132233 -0.220737 -0.028747 -0.051087 0.182124 0.026781 0.229430 -0.156470 -0.092484 0.195964 -0.445925 0.059627 0.390012 0.525558 -0.048911 0.089016 -0.143122 0.034063 -0.043599 0.085887 0.222066 -0.048844 -0.035107 -0.196794 -0.009152 0.104334 0.240060 
48 -0.241275 0.108765 -0.041095 -0.069994 0.075877 -0.189476 -0.091783 0.203021 0.221803 -0.077027 0.118807 -0.176994 0.051744 0.114945 -0.120445 -0.147123 0.196442 0.026988 0.305156 0.010509 0.138407 0.182822 0.186416 -0.012610 0.066014 0.049364 0.087149 -0.057879 -0.023129 0.013532 -0.112689 0.025879 -0.274897 0.147985 0.318981 0.026293 0.135957 0.034094 -0.017139 0.054556 0.145337 0.189254 -0.236423 0.194441 -0.154194 -0.251064 0.367858 -0.196405 0.378518 0.250968 0.265224 -0.175695 0.058803 -0.116600 -0.143123 0.063731 -0.145064 -0.233573 -0.134183 -0.237470 0.015373 0.289591 0.089677 -0.025525 
49 -0.230308 0.146100 -0.442961 0.006561 0.043793 0.204703 -0.039399 -0.084460 0.279993 0.107981 0.228245 -0.254955 -0.349979 -0.101469 0.112887 0.115344 0.187436 0.121089 0.378569 0.073716 -0.277637 -0.104228 0.240362 -0.073043 -0.032819 -0.127240 0.057079 0.394346 -0.439091 0.118100 -0.091354 -0.104425 -0.128072 0.020286 0.006460 -0.170082 0.489744 0.002891 -0.340219 -0.067238 -0.030651 -0.117929 -0.242009 0.069987 -0.012820 -0.246688 0.096492 -0.241865 0.110370 0.189440 0.389192 -0.166457 0.134174 -0.178173 -0.056190 -0.042645 -0.323124 0.170649 -0.290449 0.044692 -0.197604 0.128707 -0.082732 0.229085 
50 -0.308218 0.557836 -0.250949 -0.356828 -0.248515 -0.662710 0.207364 0.121093 0.878454 0.164697 -0.317165 -0.175793 0.190426 0.103165 0.135648 0.007962 -0.133733 0.153826 0.210973 0.246193 -0.149782 0.105712 -0.038695 0.007464 -0.112424 0.075269 -0.217543 0.613017 0.375599 -0.069922 0.024184 0.248788 0.060737 -0.544363 0.464504 0.353140 0.217555 0.580464 0.065878 0.101143 -0.022930 -0.103553 -0.166507 0.177406 0.062905 -0.115755 -0.178915 0.175339 0.069956 0.569303 0.372345 -0.446500 0.291321 -0.066498 0.302877 -0.417603 0.274645 -0.116928 0.438605 0.131281 -0.041111 0.152410 -0.248653 0.685895 
51 -0.172844 -0.187631 0.069248 -0.310818 -0.073579 0.041513 -0.232819 -0.138985 0.026058 0.302547 0.078136 0.033030 0.028710 -0.045523 0.191248 -0.077246 0.089523 -0.232894 0.036641 0.179557 0.127825 0.013662 0.409042 -0.187556 -0.068191 0.096215 -0.053589 0.013985 -0.120790 -0.185894 0.421736 -0.279599 0.106169 -0.172164 0.248809 -0.029956 0.366710 0.072898 -0.577866 -0.037018 -0.021204 -0.054045 0.206447 0.259292 -0.125948 -0.192594 0.248037 -0.034237 0.076137 0.293642 0.593255 -0.001534 0.190362 -0.214365 -0.047938 0.175431 -0.292575 0.271472 -0.153568 0.053095 0.210860 0.430328 0.256567 -0.007367 
52 -0.114511 -0.478653 0.279770 -0.131715 0.002423 -0.295399 0.412019 0.245658 -0.061472 -0.227531 -0.516728 -0.404010 -0.129982 0.145386 0.327630 0.117463 0.257264 -0.075531 0.202883 0.024298 -0.221309 0.222208 -0.274355 -0.378158 0.594923 0.304714 -0.226446 -0.272340 -0.258395 0.016925 -0.021745 0.097574 0.155818 0.354067 0.117929 0.460953 -0.067671 -0.042945 -0.259287 0.156598 -0.009621 -0.195376 -0.415214 0.263389 0.388937 -0.263397 0.216016 0.106533 0.324038 0.395260 0.363850 -0.305136 0.272497 0.197302 -0.091684 -0.073023 0.040394 0.027726 -0.404660 0.371726 -0.157608 -0.503674 0.477349 0.316726 
53 -0.489376 -0.092521 -0.299840 -0.050054 0.252016 -0.018256 -0.077292 0.208271 0.147691 0.156852 0.087556 0.337362 -0.281896 -0.043068 -0.269361 0.030555 0.402527 -0.123774 0.332656 0.312924 0.153797 -0.086414 -0.108652 0.202725 0.189405 -0.197999 0.160991 0.210791 -0.242099 0.019778 -0.080295 0.053788 -0.166294 -0.349359 -0.083668 0.225114 0.286026 0.073304 -0.823368 0.006072 0.133574 -0.302124 0.194756 0.075660 -0.127162 -0.147578 0.279974 -0.045958 -0.013353 0.116439 0.077576 -0.382511 0.032728 -0.422370 0.375398 -0.050603 -0.269035 0.167732 -0.052319 0.070891 -0.014013 -0.143903 0.175846 0.501698 
54 -0.071401 -0.010686 -0.156180 -0.083808 -0.281969 0.203956 -0.100869 0.032859 0.335442 -0.010241 -0.133160 -0.156592 -0.053142 0.023148 0.117307 -0.189090 -0.089847 0.041528 -0.311390 0.141156 0.025911 -0.105822 0.008304 -0.093942 -0.033086 0.007385 0.064095 -0.061373 -0.172824 0.188183 0.069000 0.489417 -0.353856 0.185104 0.119013 0.186492 0.208875 -0.089549 -0.217232 0.087500 -0.072171 0.156619 -0.268220 -0.153004 0.209011 -0.320314 0.058412 -0.035795 0.314074 0.359043 0.146061 -0.029544 0.129532 -0.375042 -0.165491 0.036301 -0.168547 0.052954 -0.135109 -0.196624 0.012351 0.324798 0.251411 0.242976 
55 0.108844 0.456683 -0.766631 -0.451096 0.129812 -0.119688 -0.060727 0.370531 -0.733879 -0.403970 0.083605 -0.153151 0.422898 0.102719 0.034785 -0.482219 0.072066 0.382475 -0.102020 0.188756 -0.027101 -0.156750 -0.452648 -0.309633 0.182806 0.239197 -0.388673 -0.475334 -0.294195 0.014767 0.037989 0.481373 0.033963 0.122703 0.574308 -0.076749 0.246550 0.053617 -0.493351 -0.583700 -0.045067 0.007158 -0.012527 -0.152313 -0.399585 -0.198497 -0.243330 0.171573 0.257134 0.108161 0.175248 -0.230634 0.182992 0.312212 0.072904 -0.006041 -0.501264 0.244067 -0.232542 -0.203743 -0.699710 0.893004 -0.101099 0.314971 
56 -0.379486 0.173186 -0.153446 -0.319552 -0.137550 -0.066260 -0.048412 -0.110480 0.203450 -0.065421 0.056251 0.044689 -0.162052 -0.238775 0.079081 -0.470488 -0.124458 0.210099 0.119247 0.173414 0.145972 0.150398 0.134711 -0.100937 -0.105814 -0.133658 -0.205900 -0.041020 -0.147845 -0.084482 0.057271 -0.612673 0.174306 0.122260 -0.032742 -0.267930 0.185310 -0.056189 -0.417883 -0.102470 -0.067173 0.032169 -0.029744 0.258507 0.107028 -0.085531 0.456874 -0.036463 0.427252 0.226633 0.441858 -0.115015 0.231963 -0.097222 0.187640 0.358482 -0.015921 0.173423 -0.074065 -0.281843 -0.049485 0.200726 0.171371 0.107496 
57 -0.106184 0.143178 0.051622 -0.293483 -0.131534 0.196652 0.092797 -0.130222 -0.042098 -0.127359 0.155706 -0.068531 -0.307736 0.179222 0.105250 0.269517 -0.254166 0.100933 0.124110 -0.271559 -0.150552 0.186462 -0.095020 0.004305 0.242907 0.097126 0.217708 -0.130471 -0.036768 -0.101995 0.099728 0.536196 0.200619 0.090399 0.154276 0.098018 0.232893 0.061065 -0.325135 -0.072655 -0.120167 0.192080 0.006744 0.370947 -0.019829 -0.115288 -0.137996 -0.036955 0.280749 0.113286 0.412636 -0.070226 0.145591 -0.267880 0.359886 0.422499 -0.109015 0.124438 0.081282 -0.069497 -0.036155 -0.028720 0.254531 0.093734 
58 0.074187 0.009205 0.031061 -0.204144 0.119590 -0.075778 0.247348 -0.010786 0.116412 0.111650 0.061324 -0.001378 -0.288273 0.148635 -0.051347 -0.079815 0.072494 -0.046483 -0.021271 0.102840 0.063093 0.156963 -0.212234 0.065189 -0.017580 0.254833 -0.286048 -0.002875 0.004366 0.087844 0.068507 0.403061 0.070652 0.200767 -0.096037 0.262683 0.271151 -0.171624 -0.323620 -0.080261 0.170597 0.087796 -0.108567 0.288719 -0.094586 -0.070140 0.114280 -0.184589 0.124822 0.201756 0.261590 -0.250445 0.254098 -0.290574 0.016719 0.209480 -0.097103 -0.000566 -0.039938 -0.398544 0.023228 0.049931 -0.117572 0.082875 
59 0.186505 0.211663 -0.450778 -0.143628 0.060598 -0.121945 0.278784 -0.753932 0.147686 -0.531039 -0.226435 0.037428 0.966789 0.268071 0.001173 -0.118512 -0.175193 -0.100351 0.011189 0.279904 0.740059 0.331336 0.293379 -0.254935 0.439466 0.549537 -0.162044 0.026234 -0.478995 0.268600 0.283085 0.253841 0.260123 -0.474268 0.147972 0.177099 0.045832 -0.074794 -0.006437 -0.369343 -0.080182 -0.502108 -0.323355 -0.378076 0.438469 0.155901 0.075170 -1.151361 0.425514 -0.709747 0.490631 -0.012654 -0.074019 0.290051 0.689840 0.525149 -0.258819 -0.541085 -0.930782 -0.401556 -0.327133 0.401237 0.106968 0.739732 
60 -0.214917 0.039596 0.084821 -0.292559 0.096475 0.099979 -0.091888 -0.306906 0.035879 -0.053660 0.276257 -0.281351 -0.039449 -0.242968 -0.232291 -0.053353 0.060969 0.000136 0.118743 -0.040900 0.110551 0.142109 -0.042901 0.061407 -0.110183 0.035425 -0.253506 -0.125263 -0.024285 0.003584 0.119312 -0.047486 -0.116332 0.133459 0.200179 0.012131 0.189933 0.149929 -0.366167 0.060808 0.092375 -0.025191 -0.178608 -0.036851 -0.145848 -0.217390 0.132522 -0.269736 0.574002 0.296081 0.141292 -0.096018 0.484534 -0.093675 0.042951 0.266478 0.176989 0.066540 -0.179135 0.205425 0.192746 0.097840 -0.042696 0.036154 
61 0.237643 -0.061123 0.105552 -0.209294 -0.142586 -0.177062 0.367791 -0.091125 -0.039173 0.056794 0.121040 -0.048504 -0.254620 0.277653 0.160634 -0.049459 -0.049164 0.080393 0.180589 0.158817 -0.305265 0.052020 -0.170063 -0.036228 -0.170872 -0.024660 -0.303341 0.024859 -0.151268 0.265889 0.006595 0.071452 0.028980 0.148998 0.093228 0.321290 0.366773 -0.046515 -0.219195 0.076833 0.299348 -0.114288 -0.017412 0.310085 -0.216467 -0.055457 -0.090191 -0.248725 0.173108 0.213861 0.269240 -0.242441 0.114170 -0.367386 0.012091 0.415938 0.032483 -0.016822 -0.147632 -0.062444 -0.055502 0.016302 0.029541 0.091341 
62 -0.028244 -0.035624 0.035763 -0.238945 -0.019907 0.109585 0.081071 -0.137018 0.309989 0.365634 0.211693 -0.137165 -0.117722 0.201340 0.142797 -0.159372 0.323567 0.010549 0.324426 0.004789 0.141924 -0.245830 -0.023814 0.081935 0.015832 -0.030670 -0.255582 0.097438 -0.124570 -0.178874 0.386506 -0.154879 -0.022633 0.044108 0.007865 -0.165663 -0.041893 -0.024615 -0.334797 -0.055686 0.208146 -0.186898 -0.073896 0.151593 -0.120408 0.290083 0.088044 -0.129642 0.365426 0.292968 0.574788 -0.029444 0.075054 -0.322203 0.204853 0.160827 0.066895 0.060490 -0.208566 -0.464110 -0.247934 0.250687 0.222359 0.015354 
63 -0.420700 -0.066921 -0.488487 -0.045961 0.019622 -0.176675 0.003097 0.092209 -0.115896 0.052388 0.115138 0.030392 -0.490125 -0.109900 -0.155083 0.115205 0.376757 -0.183511 0.114303 0.043713 0.365979 0.008291 0.079390 0.096672 -0.084225 -0.342975 -0.089628 0.085101 -0.279387 -0.113187 0.139261 0.145779 -0.094588 0.119522 0.133484 0.049764 0.086135 0.398312 -0.494075 -0.143824 0.075917 -0.322157 0.082684 -0.062209 -0.117536 -0.051769 0.066133 -0.009086 0.201924 0.247560 0.140285 -0.244008 0.131138 -0.528261 0.297835 0.059831 -0.132438 0.020703 -0.148461 0.021012 0.385945 -0.072490 0.228093 0.416546 
64 -0.205641 -0.093742 -0.003101 -0.433525 -0.152204 0.239809 -0.117566 0.266688 -0.004489 -0.140920 0.188364 -0.250376 0.079656 -0.564821 0.088230 -0.329590 -0.033722 0.037472 0.262338 -0.100548 0.138163 -0.116889 0.303092 -0.091780 -0.108755 -0.062067 0.068109 0.017163 0.155556 -0.138852 0.017982 -0.041694 0.199750 -0.124941 0.176128 0.194544 0.161123 0.061773 -0.236252 0.210640 0.044435 -0.196909 -0.313353 0.158255 0.100981 -0.205024 0.214683 -0.123412 0.529909 -0.066810 0.447725 -0.304165 0.169480 -0.090968 0.221113 0.156670 0.102210 0.462339 0.030477 -0.160111 0.069263 0.087536 0.055302 0.137421 
65 -0.270771 0.290529 0.306938 0.095282 0.116969 -0.089984 -0.385382 0.323529 0.111082 -0.125755 0.265201 -0.099461 -0.182303 0.179691 -0.025157 -0.070084 -0.034912 -0.051919 0.411192 -0.058389 0.072019 0.186494 -0.013876 0.004548 0.304753 0.272272 0.022373 0.027708 -0.068181 0.078220 -0.233949 -0.020232 -0.371499 -0.006246 0.208875 -0.325069 0.052341 0.144418 -0.018594 -0.203701 0.145422 0.197845 -0.302122 0.132643 -0.017794 -0.335959 0.056649 -0.248863 0.523362 0.391780 0.183339 -0.463113 0.197928 -0.092956 0.035706 0.069106 -0.177706 -0.411149 -0.064884 -0.063657 0.178140 0.478068 0.322539 -0.314376 
66 0.074495 -0.335402 -0.070742 -0.318726 -0.114750 -0.369816 -0.187738 0.185090 -0.002889 0.388763 0.165359 -0.283893 -0.309815 -0.167615 -0.098691 0.154006 -0.239016 0.130316 -0.091788 0.049819 0.536065 -0.073544 -0.185951 -0.120448 0.182264 -0.111873 -0.362472 -0.100299 -0.130074 -0.636253 0.183497 0.224548 0.034093 -0.003305 0.618706 0.137737 -0.039997 0.547562 -0.252289 -0.138583 -0.194089 -0.168549 0.077366 -0.029230 -0.606444 -0.045447 0.311462 -0.174314 -0.001217 -0.034336 0.459597 -0.137012 0.152599 -0.191311 -0.001157 0.464235 -0.190229 0.065588 -0.247154 0.026678 -0.027979 0.205770 0.398600 0.265923 
67 0.004128 0.117171 0.039084 -0.156160 -0.026767 -0.070131 0.000200 -0.010909 0.158513 -0.252054 0.036655 -0.210231 0.040098 -0.082218 -0.027034 -0.161146 0.055303 0.023626 -0.069881 0.191351 0.047095 -0.116897 -0.250384 0.130432 0.148979 0.118887 0.018873 0.098562 -0.186917 0.159648 0.300672 0.205878 -0.082651 0.229926 0.104374 0.083900 -0.096087 0.180971 -0.120271 0.001021 0.168760 -0.025127 -0.240201 -0.012051 -0.093274 -0.325296 0.083926 -0.142746 0.326717 0.309464 0.211982 0.002150 0.153198 -0.217845 -0.238325 0.153565 0.000645 0.068337 -0.129565 -0.210911 0.082869 0.138820 -0.017764 0.225007 
68 0.565431 0.211614 -0.047083 -0.026346 -0.464999 0.370797 -0.275459 0.184774 -0.067115 0.338213 0.083958 -0.449658 0.115210 -0.068988 -0.398067 -0.520802 0.457512 -0.131712 0.740866 -0.118744 -0.096509 0.065483 -0.137878 0.613314 0.397312 -0.214861 -0.481055 -0.440780 -0.780650 0.297289 0.001661 -0.017907 -0.050669 -0.411254 -0.105657 0.341528 -0.396598 0.108936 -0.080000 0.324368 -0.056722 0.384256 -0.563511 0.032762 -0.221059 -0.313306 -0.492793 0.414524 -0.049346 0.107364 1.067506 0.511357 0.478000 0.003432 -0.317715 0.458845 0.040612 0.206163 0.255885 -0.351868 0.358839 -0.137766 -0.013871 0.459378 
69 -0.277743 -0.346957 -0.279705 -0.137009 0.172654 0.053436 -0.094445 -0.179258 0.290585 -0.174830 -0.026398 -0.129589 -0.280660 0.238410 -0.146931 -0.044966 0.328641 0.129238 0.250448 0.098168 0.045622 0.117538 0.221708 -0.305462 -0.086885 -0.062883 0.118824 -0.342524 -0.251655 -0.246136 0.146458 0.021347 0.203339 -0.033993 -0.003874 0.041245 0.351682 0.158291 0.128737 -0.273596 0.067289 0.190012 -0.319405 0.043733 0.019817 -0.483891 0.112370 0.048932 0.070431 0.261937 0.432336 0.154655 0.515457 -0.195378 0.106655 0.423115 -0.141221 0.003521 0.136193 -0.048414 -0.118315 0.258143 -0.150584 0.009490 
70 -0.009744 0.055560 -0.103092 -0.273646 0.522701 -0.210477 -0.338375 -0.154688 -0.215696 -0.269077 -0.108166 -0.271220 -0.088906 -0.126323 0.122535 -0.268006 0.347776 0.057175 0.240800 -0.027113 0.090075 0.291436 0.184791 0.034152 -0.173964 0.169634 -0.206227 0.277085 -0.243423 -0.155808 -0.063474 0.557733 0.068764 -0.007162 -0.143770 -0.033794 0.091175 0.316947 -0.206433 -0.015000 0.269524 -0.237047 0.017528 -0.499876 -0.285034 -0.052926 -0.084316 -0.375885 0.476466 0.357298 0.229850 0.151955 0.521130 -0.167293 0.145106 -0.062422 -0.388922 0.153970 -0.274280 -0.892856 -0.225418 0.255464 0.122594 -0.147488 
71 0.426601 -0.302477 -0.251904 -0.053331 -0.268861 -0.436880 0.021144 -0.398850 -0.263117 -0.017833 0.547374 0.053018 0.098938 0.197884 0.034777 0.081753 0.180299 0.252198 -0.126892 0.052136 0.055038 -0.111050 -0.009802 0.325871 0.424156 0.183502 0.008208 0.119457 0.202013 0.564744 0.162228 0.326751 0.236744 -0.099937 0.223937 0.074999 0.111772 -0.154151 -0.274088 -0.559439 -0.459353 0.216831 -0.159647 0.145714 0.030533 -0.670895 -0.105860 0.063518 0.853587 0.273157 -0.035991 -0.239962 -0.012894 -0.084991 -0.161233 0.304146 -0.082006 0.173551 -0.084162 -0.168195 -0.412126 -0.140779 0.207013 0.120810 
72 0.397561 0.429828 -0.294315 -0.551741 -0.260758 -0.504811 -0.115225 0.179910 0.612087 0.125260 -0.058967 -0.319294 0.069279 0.146556 0.030172 0.487569 0.184983 -0.316406 -0.217853 0.043860 0.496645 0.158267 -0.249232 0.125904 -0.228416 -0.225360 0.216718 -0.144372 -0.328898 0.014852 -0.046838 0.084700 0.370606 -0.050204 0.067771 -0.277502 0.709698 -0.180284 0.250784 -0.136598 0.408364 0.187616 -0.102584 0.202205 -0.235931 -0.471951 -0.124065 0.066327 0.401529 0.221481 0.218238 -0.240815 0.375594 0.053938 0.360921 0.027327 0.343157 -0.026160 -0.203690 0.024632 -0.590160 0.116746 0.148032 0.609186 
73 0.083018 0.213755 -0.120719 -0.080458 -0.621273 0.029220 -0.239131 -0.193632 -0.085135 0.262407 -0.267911 0.093940 -0.145408 0.266140 0.157855 -0.173770 0.331356 0.054485 0.007239 0.211057 0.013450 0.368923 -0.133274 0.224105 -0.183626 0.156595 -0.254669 -0.175924 -0.237128 -0.105614 -0.090405 0.013105 -0.030754 -0.029061 -0.193791 -0.114995 0.021665 0.178656 -0.259083 0.076450 -0.154301 -0.007551 -0.293942 -0.054412 -0.112082 -0.403565 0.138520 -0.284949 0.187434 0.212571 0.725276 -0.148113 0.204285 -0.194004 -0.220105 0.154773 0.098253 -0.122085 -0.089447 -0.130374 0.120426 -0.050972 -0.295002 -0.053252 
74 0.159850 0.193008 -0.185935 -0.335846 0.318295 -0.069447 -0.110770 0.000438 0.141718 -0.098232 0.233488 0.048985 0.290162 0.081003 0.193766 0.198909 0.046538 0.059992 0.056892 -0.159695 -0.180777 -0.323012 0.309697 0.208834 0.138560 0.197435 -0.229398 0.049081 -0.234671 0.004368 0.114486 0.057115 -0.014045 -0.000577 0.115347 -0.026385 0.061227 -0.136113 -0.324539 0.083332 -0.001698 0.105595 -0.332096 0.018449 -0.099597 0.096435 0.321702 -0.361934 0.314957 0.213546 0.156442 -0.203403 0.132854 -0.060993 0.069228 0.384862 -0.271916 0.174834 -0.159361 0.043758 -0.189853 0.440401 -0.020049 0.088402 
75 0.332476 -0.012058 0.141643 -0.492028 0.097303 0.217536 0.437803 0.081343 0.222161 -0.023118 0.136567 0.124236 0.134249 -0.128335 -0.360914 -0.058249 0.015966 -0.048662 0.521065 0.395893 -0.283005 -0.048696 -0.286125 0.291461 -0.059733 -0.310592 0.003836 0.126926 0.418227 -0.013038 -0.066473 0.090151 0.112180 0.596805 -0.015245 0.231233 -0.283524 -0.037524 -0.009583 -0.205005 -0.517418 0.283967 0.396299 -0.035866 0.015481 -0.372651 0.253402 -0.402722 0.379814 -0.085593 0.594752 -0.274064 0.247079 -0.328641 -0.154710 -0.195450 -0.131777 -0.280966 0.319691 0.110501 0.066947 -0.007828 -0.036542 0.188537 
76 -0.049348 -0.134338 0.458408 -0.329375 -0.014900 0.194403 0.378689 0.038765 -0.107449 0.263365 0.319383 -0.322730 0.001571 0.189697 0.161168 -0.158866 0.246822 -0.340857 0.041251 -0.030830 0.218537 0.041439 0.204062 -0.330980 0.274712 -0.358849 -0.065224 0.335253 -0.100621 -0.108943 -0.127555 0.018873 0.148358 -0.440447 0.514311 -0.099510 0.160240 -0.031984 -0.139372 -0.004734 0.012072 -0.016825 -0.125882 -0.048671 0.015526 -0.169953 0.382806 0.041090 0.341647 0.387848 0.177080 0.081956 -0.090588 -0.407083 -0.054941 0.055537 -0.102143 0.054622 0.020879 -0.002516 0.241910 0.368516 -0.300792 0.552951 
77 -0.262723 0.080069 0.310664 -0.396916 0.108877 0.160572 0.013860 -0.061262 0.003965 0.245113 -0.010022 -0.052271 0.347539 0.042823 -0.283301 0.140047 -0.053212 0.185899 -0.038236 0.281221 0.183768 -0.204757 -0.141974 0.006573 0.019711 0.074878 0.093229 0.032008 -0.381764 -0.006908 -0.008393 -0.099726 0.036394 0.035358 0.284595 0.275085 0.319489 0.189610 0.129200 0.053412 0.156323 0.053905 -0.015645 0.299951 -0.363091 0.035623 0.049316 -0.051048 0.322256 0.102946 0.256270 -0.351176 0.050757 -0.166410 -0.269066 0.204978 -0.002085 0.082546 0.128254 -0.197209 0.225689 -0.371960 0.076784 0.449686 
78 0.743781 -0.369665 0.285215 0.017226 0.309395 0.099260 -0.164127 -0.276887 -0.033813 -0.762214 -0.391787 0.766912 0.116145 0.658030 0.078102 -0.066667 -0.333198 0.065105 -0.315052 0.243900 0.339448 -0.448349 0.255501 0.044113 -0.112133 0.507229 0.068066 0.638878 0.148947 0.909992 -0.345638 0.225164 0.087916 0.556857 1.043414 -0.192554 -0.177565 -0.192429 -0.209353 0.382186 -0.003806 -0.194875 -0.406228 -0.098816 -0.521986 -0.718632 -0.452701 0.616148 -0.112935 -0.131558 1.291060 0.060028 0.069651 0.311093 -0.032007 0.094649 0.184731 -0.582871 -0.497377 -0.200595 0.307489 -0.221355 -0.406796 0.605494 
79 -0.227175 0.390566 0.066865 -0.154219 -0.089550 0.092775 0.070690 -0.317784 0.062542 -0.093955 0.003211 -0.191143 0.063642 0.162063 0.002398 -0.005985 -0.248521 0.343685 0.460929 0.138609 0.138703 -0.186587 0.022953 0.045979 0.150510 -0.114055 -0.023971 0.050967 -0.015977 -0.133836 -0.177858 0.134869 -0.150267 -0.003481 0.164675 0.357042 -0.031409 0.026452 0.340498 -0.048111 0.054059 -0.053245 0.121784 0.300406 -0.085620 0.012525 0.303278 0.085438 0.305464 0.249551 0.419380 -0.267775 0.249763 -0.395787 -0.094198 -0.344357 -0.325993 0.014226 -0.154939 0.255510 -0.200318 -0.370259 0.314681 0.243631 
80 -0.174281 -0.043248 -0.114061 -0.228246 0.022586 0.002780 -0.146569 -0.299855 -0.271776 0.301510 0.069654 -0.376820 -0.076937 0.112412 -0.074806 -0.136575 -0.046139 0.137655 0.091814 0.065608 0.073476 0.043923 0.117649 0.070239 0.016065 0.006136 -0.091674 -0.046748 0.008083 0.099939 -0.037809 0.110897 0.000202 0.092225 0.232551 0.023253 0.295483 0.227276 -0.217224 0.310091 0.085636 -0.382899 -0.051049 0.253102 0.106250 -0.108671 -0.073795 -0.296526 0.122923 -0.027019 0.563669 -0.170581 0.335417 -0.381183 -0.178732 -0.022022 0.180698 -0.018916 0.134634 -0.057920 0.310735 0.030913 0.421480 0.173405 
81 0.135434 -0.506459 0.064033 -0.197012 -0.012065 -0.201594 -0.139205 -0.208573 0.129989 -0.553880 -0.246408 0.023519 0.113250 -0.130848 0.576390 -0.129199 0.328952 0.385586 -0.208788 0.158228 -0.285608 0.208792 -0.216601 0.336471 -0.017078 0.395274 -0.649734 0.358570 -0.551470 0.407464 -0.069190 -0.036448 -0.203240 -0.169655 0.171163 0.097458 0.473613 0.440014 -0.001943 -0.056888 0.296969 0.235040 0.026313 0.128921 -0.455704 -0.132909 0.130969 -0.168638 1.070385 -0.378678 0.430016 0.235949 -0.018225 0.142075 1.023840 0.164422 -0.961761 -0.155678 -0.420518 0.261492 -0.283786 0.427758 -0.441072 -0.152642 
82 0.669929 -0.240061 -0.272637 -0.226622 0.018318 0.090719 -0.675981 -0.072765 -0.130797 -0.719567 -0.624310 0.760350 0.071496 0.443950 0.008495 0.349268 0.610735 0.217538 -0.418407 0.495947 -0.225120 -0.009197 -0.303042 -0.091822 0.373262 0.426531 0.360692 0.783930 0.267588 0.674180 -0.432920 -0.354763 0.614589 0.182736 0.872120 0.415164 -0.509686 0.242773 -0.074253 0.726042 0.085821 0.608058 -0.022543 -0.021285 -0.148500 0.031074 -0.694266 -0.312858 0.469154 -0.811386 0.703722 -0.163052 0.241020 -0.060562 -0.097956 0.407794 0.438136 -0.355298 -0.296341 -0.208657 0.202625 -0.124647 -0.069756 0.851138 
83 -0.109552 -0.209553 -0.056428 -0.233698 -0.118378 0.088329 0.247711 -0.168966 0.339883 0.181291 0.018775 -0.118663 0.378440 0.049971 -0.127403 0.013204 0.094446 0.134439 0.362740 -0.426496 0.141334 -0.109108 -0.018963 -0.051236 0.014349 -0.180059 -0.255854 0.090828 -0.029701 0.285077 0.080172 0.254089 -0.155470 0.484823 0.296694 -0.186086 0.300880 0.234155 -0.004606 0.072530 -0.065696 0.022092 -0.651909 -0.138801 -0.164135 -0.426822 0.201632 -0.008916 0.092706 0.109134 0.243991 -0.157080 -0.035014 -0.415118 0.197546 0.504525 0.072416 -0.038450 0.004486 -0.479929 -0.271710 0.165555 0.043787 -0.013671 
84 -0.374828 0.000854 -0.172155 -0.407873 -0.042359 -0.179631 0.136242 0.028473 0.083696 -0.022801 0.032829 -0.112265 -0.094207 0.073681 -0.110542 -0.047867 0.282786 -0.037050 0.081164 -0.212138 -0.147824 -0.097735 0.438746 -0.145795 0.190880 -0.240244 -0.331331 -0.196526 0.266110 -0.059483 0.216112 -0.167771 -0.075640 -0.058654 0.298753 0.123314 0.178898 0.128065 -0.001624 -0.008141 0.147037 0.068866 -0.357908 0.099304 -0.164364 -0.033721 0.363237 -0.301823 0.280101 0.028470 0.361653 -0.287421 0.140160 -0.284792 -0.062955 0.300035 -0.109297 -0.044974 -0.100945 -0.228195 -0.203223 0.053002 -0.284046 0.035852 
85 -0.281226 -0.048162 0.036535 -0.050018 0.020029 -0.115427 -0.099412 0.007145 0.057616 0.107526 -0.022940 -0.329659 -0.123403 0.171591 -0.143806 -0.168540 0.153929 -0.107330 -0.049760 0.017309 -0.039252 -0.298820 0.177120 0.000375 0.018395 0.111123 -0.218684 -0.068171 -0.188940 0.011016 -0.002376 -0.051740 -0.084797 0.052759 0.423715 0.070626 0.088488 0.009559 0.005279 0.034013 0.041725 0.172699 -0.115702 0.028069 0.026969 -0.349040 0.205730 -0.338680 0.473745 0.131882 0.097425 -0.084217 0.192778 -0.111863 -0.009549 -0.034127 -0.135707 -0.101629 -0.057115 -0.367206 -0.223054 0.095423 -0.004279 0.303757 
86 0.185738 0.020392 -0.189540 0.009968 0.145092 -0.225636 -0.143190 0.147384 0.013294 0.075727 0.634624 -0.246329 -0.022437 0.156362 0.117433 -0.066109 -0.260723 0.018480 0.275418 0.157145 -0.000156 0.134106 0.042785 -0.150880 0.248131 -0.047439 -0.150726 0.105189 -0.307253 0.242673 -0.239254 0.214231 0.142166 0.105224 0.225827 0.029460 0.411577 0.254357 -0.021816 -0.061759 0.294943 0.204990 -0.209484 0.014740 0.314481 -0.041486 0.410612 -0.007422 0.261202 0.137379 0.379784 -0.176825 0.165943 -0.379185 0.085128 0.136160 -0.109080 -0.285980 0.167824 -0.073405 0.276320 0.009169 0.066094 -0.038949 
87 0.400337 -0.047471 0.010641 -0.357026 0.282593 -0.178603 -0.471512 0.469319 0.218435 0.417484 -0.191820 0.131009 -0.205911 0.074534 0.143972 -0.147550 -0.324003 0.051020 0.111768 -0.086841 0.380469 -0.101651 -0.509156 0.068965 0.094442 0.014856 0.034164 0.180501 -0.098979 -0.328972 -0.244343 -0.016104 0.018272 -0.321941 0.439942 0.734467 0.086065 0.209329 -0.451749 0.052771 0.146679 -0.609489 0.198102 -0.227047 -0.145753 -0.252278 0.608981 0.051565 -0.025191 -0.093868 0.092067 -0.015867 0.326004 -0.301359 -0.269970 0.480409 -0.173178 0.166538 0.201230 0.223097 -0.480058 -0.020762 0.091440 0.058633 
88 0.200982 -0.049718 -0.432809 -0.069066 0.103801 -0.451283 0.299894 -0.268955 -0.143914 -0.399049 0.119951 0.212020 0.539722 0.509317 0.320874 -0.267732 0.135774 0.412052 -0.018706 -0.170051 0.235385 -0.084176 -0.205845 0.141557 -0.035996 0.322993 0.334107 0.109678 -0.227502 0.007517 0.318003 -0.063275 0.248504 0.218674 0.080916 -0.279457 -0.121889 0.150138 -0.229961 -0.227077 0.061022 0.277304 -0.499737 -0.471045 0.156287 -0.244623 -0.141195 -0.439688 0.123852 -0.191576 0.352643 -0.279420 0.280035 -0.189023 0.027310 0.111222 -0.188325 0.212821 -0.526977 -0.266035 0.028698 0.458457 -0.067632 0.277321 
89 0.315660 -0.080309 -0.069934 -0.440199 0.054745 0.140748 0.241357 0.454370 -0.105486 0.104719 -0.119046 -0.452302 -0.047042 0.066365 -0.073905 -0.140956 0.159746 -0.086506 0.064233 0.096333 -0.093692 0.164490 0.363136 0.662277 -0.120456 -0.132025 -0.126308 0.179147 -0.028051 0.344368 -0.066960 -0.071557 0.028283 -0.247546 0.096818 -0.064843 0.332615 0.221172 -0.064851 -0.198308 -0.284557 0.131794 -0.429585 -0.043097 0.124704 -0.113699 0.295121 -0.249468 0.150782 0.139664 0.207282 -0.355705 0.283976 -0.365332 0.022076 0.170568 -0.216593 -0.241212 0.269096 0.092859 0.169785 0.027332 0.190866 0.031531 
90 -0.036295 0.036674 0.106162 -0.183275 0.263249 0.007877 0.058273 -0.006194 0.269489 0.175179 0.326726 0.066550 -0.171853 -0.153455 -0.024497 -0.152634 0.215516 0.070387 -0.116130 -0.012328 0.330487 -0.179360 -0.391138 0.248911 0.264595 0.370447 -0.506360 -0.103647 -0.051437 0.216265 0.005453 0.243919 0.440407 0.481410 0.170199 -0.070046 0.501888 0.058617 0.241932 -0.051996 0.043317 0.052480 -0.331220 0.030421 -0.000805 0.064705 -0.212109 -0.077935 0.140481 0.099186 0.441306 -0.144233 0.105322 -0.150875 -0.229158 0.254866 -0.088304 0.167140 0.018129 0.015142 -0.320258 0.039940 0.230889 0.250579 
91 -0.202124 -0.163224 0.343639 -0.153675 0.146637 0.236699 0.086285 0.186525 -0.178477 -0.070871 -0.942932 -0.729340 -0.023347 0.759173 0.311040 0.463697 0.037493 0.011411 0.576968 0.149032 0.312103 -0.338664 -0.351918 -0.102477 -0.089079 0.445389 -0.381303 -0.217975 -0.312206 -0.366652 0.047211 -0.306040 0.493133 0.307449 0.197866 0.251162 0.031000 -0.361570 -0.541036 0.061866 0.040653 0.422947 -0.611296 -0.089476 -0.009043 -0.259162 0.396734 0.235363 0.364192 0.280198 -0.281452 -0.321043 0.456659 -0.050712 0.150374 -0.112569 -0.091647 -0.337775 -0.259853 -0.062613 -0.203427 -0.094482 0.416235 0.545489 
92 -0.222727 -0.090962 -0.185058 -0.393127 0.009193 0.004738 0.034478 0.013356 0.209085 0.043681 0.004351 0.219899 0.003852 -0.074558 -0.143638 0.046982 0.171963 -0.287021 0.158101 -0.050240 -0.212895 0.109641 0.165167 0.086170 0.043892 0.132057 0.115276 0.207730 -0.317498 -0.084188 -0.329213 0.223690 -0.001319 -0.133133 -0.004606 -0.142453 -0.146766 -0.062621 -0.673040 0.033936 0.044729 -0.059710 -0.217451 0.192648 -0.153269 0.124511 0.169262 -0.110947 0.312738 0.229593 0.107870 0.008998 0.320942 -0.326426 0.063404 -0.036636 -0.303994 0.046299 -0.142366 -0.090634 -0.014976 0.219802 0.175354 0.317853 
93 0.090773 -0.326602 -0.011161 -0.061182 0.092738 0.367051 -0.426225 -0.398616 -0.238702 0.033479 -0.120566 -0.245795 -0.109519 0.225502 0.558587 0.151126 0.085898 -0.380949 0.865569 0.420427 -0.078192 -0.264055 -0.092916 0.169807 -0.521077 0.022425 0.260950 -0.331349 -0.218507 0.016921 0.057701 0.192190 0.091305 -0.178083 -0.105940 0.176576 0.515031 0.424386 -0.193816 -0.267608 0.109318 -0.289536 0.019504 -0.211225 -0.222331 0.059888 -0.157481 -0.047720 0.201603 0.448249 0.825572 0.021209 0.259807 -0.254709 -0.176598 0.031181 0.496235 -0.010165 0.183727 -0.305964 0.284399 -0.078560 0.174158 0.076830 
94 -0.303890 0.116444 -0.119254 0.050324 0.195485 0.145832 -0.293171 0.010756 0.301073 0.074452 0.249388 -0.277763 -0.182743 0.227838 -0.022301 -0.499857 -0.036874 -0.155182 -0.007484 0.036662 0.169859 -0.073466 0.131596 0.205957 0.104397 0.327124 -0.175605 -0.025187 0.076302 -0.152216 0.171756 -0.191244 0.120359 -0.090362 0.071349 -0.121969 0.016723 -0.004805 -0.343505 0.260072 0.014637 0.042137 -0.080355 0.256605 -0.080266 -0.490461 0.161070 -0.451478 0.518759 0.312110 0.101818 -0.037258 0.376258 -0.117702 0.244141 0.019775 -0.156735 0.261797 -0.241038 -0.318953 -0.109324 0.196340 -0.256636 0.103907 
95 -0.139091 -0.221208 0.154942 -0.160368 -0.463009 0.309144 0.104205 0.127276 0.107153 0.266398 0.276698 -0.802886 0.223988 0.168002 0.098301 -0.249170 0.082439 0.182873 0.362159 0.197380 0.291121 -0.200031 0.083473 -0.067648 -0.289526 -0.355761 -0.371382 0.281505 0.166465 -0.176976 -0.024551 0.491047 0.527065 -0.135165 -0.030950 0.111110 -0.099536 0.486308 -0.145248 0.368720 0.132414 0.139732 -0.110999 -0.066576 -0.004748 -0.325199 0.277986 -0.192609 0.126327 -0.168102 0.546476 -0.216958 0.012129 -0.295195 0.313862 0.550313 -0.084707 0.117849 0.433836 -0.327053 -0.247351 0.500732 0.479760 -0.034986 
96 -0.153684 0.132771 0.084263 -0.095066 0.188778 -0.007946 0.134349 -0.197866 -0.051528 -0.007651 0.199614 -0.769266 -0.141664 -0.245691 0.130206 -0.200670 0.242485 -0.223892 0.006574 0.001577 0.171296 0.013014 0.025578 -0.118776 -0.114171 -0.135293 0.224140 -0.116393 0.209440 0.019712 0.194173 0.042628 -0.172868 0.066417 0.556932 0.058618 0.395445 -0.174228 -0.482748 0.136268 -0.298645 -0.103100 -0.107277 0.035284 0.140359 0.042247 0.219057 0.023670 -0.072483 -0.347324 0.532391 -0.254146 0.928705 -0.298273 0.340749 0.135587 -0.119774 -0.232331 -0.016359 0.005726 0.157970 -0.122743 -0.274820 0.240859 
97 -0.070587 -0.120639 0.003402 -0.305493 -0.409835 -0.296110 0.067369 -0.227323 0.022817 -0.250116 -0.039702 -0.040496 0.058611 0.156411 0.060964 0.050132 0.219290 0.389659 0.021317 -0.125062 0.315109 -0.214951 -0.146654 0.015108 -0.035732 -0.022593 0.282130 -0.165643 0.038829 -0.117788 -0.241974 0.197833 -0.143775 -0.017913 0.099210 0.296402 -0.037655 -0.023081 -0.245353 0.001928 0.119241 -0.020146 -0.238051 0.098097 0.171035 0.237829 0.280995 0.211725 0.521612 0.144110 -0.058966 0.097505 0.735264 -0.471120 0.072092 -0.320349 -0.281087 -0.058766 0.190885 0.074664 0.247714 0.245238 0.109827 0.437777 
98 0.015106 0.096245 0.180483 0.007484 -0.344104 -0.188209 0.032164 -0.345481 0.517366 -0.417489 0.113013 -0.288323 0.103810 0.197365 -0.286487 0.235559 -0.032619 -0.100193 0.062516 -0.246112 -0.090559 -0.240367 -0.201862 -0.234210 0.214502 0.070993 -0.474658 -0.123103 -0.039575 0.095804 -0.222479 -0.052564 0.254451 0.011500 0.158547 0.304713 0.425758 -0.229793 0.003853 -0.258218 0.270640 -0.077673 -0.037477 0.168338 -0.194766 -0.823375 -0.042649 -0.056782 0.024267 0.356729 0.261243 -0.100482 0.248240 -0.098439 0.138584 -0.234017 -0.008523 -0.072717 0.054257 -0.697780 -0.356811 -0.108703 0.237308 0.500191 
99 -0.270310 -0.125503 0.215923 -0.396221 -0.121463 -0.018596 0.038816 -0.062045 -0.061864 0.179136 -0.012900 -0.053913 0.242148 -0.152650 0.049569 0.202402 0.210393 -0.046523 0.075211 0.276694 0.054694 0.045458 0.228280 -0.006674 0.141078 -0.003814 0.218436 0.010249 -0.268398 -0.107146 0.075430 -0.154996 -0.010795 -0.215550 0.246319 0.098673 0.034625 -0.062686 -0.320882 -0.207299 0.244197 -0.261543 -0.165296 0.190363 -0.101267 -0.223165 0.267101 0.044357 0.276577 0.405866 0.253802 0.134575 0.093251 -0.473504 0.040415 0.079038 -0.120652 0.131952 0.175946 -0.160786 -0.016222 0.246833 -0.154711 0.085227 
